{"learner":{"attributes":{"scikit_learn":"{\"_estimator_type\": \"regressor\"}"},"feature_names":["release_year","runtime","budget","original_language","first_company","first_producer","first_actor","imdb_votes","action","adventure","animation","comedy","crime","documentary","drama","family","fantasy","history","horror","music","mystery","romance","science_fiction","tv_movie","thriller","war","western"],"feature_types":["int","float","float","int","int","int","int","float","int","int","int","int","int","int","int","int","int","int","int","int","int","int","int","int","int","int","int"],"gradient_booster":{"model":{"gbtree_model_param":{"num_parallel_tree":"1","num_trees":"100"},"iteration_indptr":[0,1,2,3,4,5,6,7,8,9,10,11,12,13,14,15,16,17,18,19,20,21,22,23,24,25,26,27,28,29,30,31,32,33,34,35,36,37,38,39,40,41,42,43,44,45,46,47,48,49,50,51,52,53,54,55,56,57,58,59,60,61,62,63,64,65,66,67,68,69,70,71,72,73,74,75,76,77,78,79,80,81,82,83,84,85,86,87,88,89,90,91,92,93,94,95,96,97,98,99,100],"tree_info":[0,0,0,0,0,0,0,0,0,0,0,0,0,0,0,0,0,0,0,0,0,0,0,0,0,0,0,0,0,0,0,0,0,0,0,0,0,0,0,0,0,0,0,0,0,0,0,0,0,0,0,0,0,0,0,0,0,0,0,0,0,0,0,0,0,0,0,0,0,0,0,0,0,0,0,0,0,0,0,0,0,0,0,0,0,0,0,0,0,0,0,0,0,0,0,0,0,0,0,0],"trees":[{"base_weights":[1.0163319E-7,-3.2826886E-1,4.467939E-1,-1.4589582E-1,-9.622526E-1,9.4616115E-2,6.833171E-1,-2.2101324E-2,-7.150663E-1,-1.3880358E0,-4.900125E-1,1.6734646E-1,-7.335078E-1,6.101768E-1,1.4814429E0,-6.826024E-2,1.1004524E0,-8.7236285E-1,-7.303216E-2,-1.0502506E0,-1.7954639E0,-2.7803592E-2,-6.767221E-1,-7.4541636E-2,2.9076362E-1,-9.4859874E-1,-3.70848E-1,1.2922455E0,5.126624E-1,1.3320943E0,2.1517518E0,3.009849E-1,-2.229336E-1,1.1110207E0,-3.0733123E-1,-3.3409002E-1,-1.1679265E0,3.011163E-1,-3.1144333E-1,-1.1551967E0,-5.7424E-1,2.2275437E-1,-1.8932195E0,-2.9819816E-1,3.8549232E-1,-8.0188143E-1,1.8024579E-1,-1.5455556E-1,1.3002731E0,1.9049166E-1,5.460484E-1,-4.197872E-1,-1.2592454E0,-9.6057904E-1,-1.3927391E-1,1.0464289E0,1.5506022E0,1.9865607E-1,7.1926504E-1,5.224709E-1,1.1473358E0,7.026839E-1,1.7278707E0,2.2445573E-2,2.8300244E-1,-1.6244061E-1,1.7938672E-2,3.0178097E-1,4.140371E-1,-1.1150241E-1,2.0678829E-1,-3.977694E-1,-3.3281542E-2,4.102727E-2,2.7143615E-1,-1.7328438E-1,7.010516E-2,-3.5556987E-1,7.209914E-2,-2.3290664E-1,-1.0831014E-1,7.822226E-3,2.0363338E-1,-6.131572E-1,-3.1769797E-1,1.4969847E-1,-1.1814133E-1,2.1965061E-1,2.7295295E-2,-2.591526E-1,-4.0648403E-3,1.2567538E-1,-6.874008E-2,4.889806E-2,-9.697351E-2,-2.8977495E-1,4.185214E-1,7.4124455E-2,-2.2587325E-1,1.1060346E-1,2.4015325E-1,-1.6322666E-1,3.1289312E-3,-4.8064807E-1,-3.003494E-1,-3.5448316E-1,1.1427003E-1,-1.702082E-3,-1.5792935E-1,2.527945E-1,3.5299703E-1,4.370562E-1,5.4387456E-1,3.9007317E-2,2.498725E-1,1.8460585E-1,3.314886E-1,3.02172E-1,3.9976293E-1,3.695424E-1,6.0687894E-1],"categories":[],"categories_nodes":[],"categories_segments":[],"categories_sizes":[],"default_left":[0,0,0,0,0,0,0,0,0,0,0,0,0,0,0,0,0,0,0,0,0,0,0,0,0,0,0,0,0,0,0,0,0,0,0,0,0,0,0,0,0,0,0,0,0,0,0,0,0,0,0,0,0,0,0,0,0,0,0,0,0,0,0,0,0,0,0,0,0,0,0,0,0,0,0,0,0,0,0,0,0,0,0,0,0,0,0,0,0,0,0,0,0,0,0,0,0,0,0,0,0,0,0,0,0,0,0,0,0,0,0,0,0,0,0,0,0,0,0,0,0],"id":0,"left_children":[1,3,5,7,9,11,13,15,17,19,21,23,25,27,29,31,33,35,37,39,41,43,45,47,49,51,53,55,57,59,61,63,65,67,-1,69,71,73,75,77,79,81,83,85,87,89,91,93,95,97,99,101,103,105,107,109,111,113,115,-1,117,-1,119,-1,-1,-1,-1,-1,-1,-1,-1,-1,-1,-1,-1,-1,-1,-1,-1,-1,-1,-1,-1,-1,-1,-1,-1,-1,-1,-1,-1,-1,-1,-1,-1,-1,-1,-1,-1,-1,-1,-1,-1,-1,-1,-1,-1,-1,-1,-1,-1,-1,-1,-1,-1,-1,-1,-1,-1,-1,-1],"loss_changes":[3.018292E3,1.3714781E3,7.2596265E2,6.492042E2,5.321604E2,2.1110754E2,3.034641E2,3.9226944E2,1.661654E2,1.8982349E2,1.08545135E2,9.6178635E1,2.1723587E1,3.1712952E2,4.0881653E1,4.1533127E2,7.8526E0,2.0993195E2,2.908416E1,3.7502563E1,1.247157E2,4.0681286E1,9.624725E1,1.1999567E2,5.4496307E1,2.8547806E1,1.4478823E1,3.629187E1,2.7116235E2,2.5237244E1,2.2521973E0,3.118443E2,4.615855E2,7.038666E0,0E0,1.8334072E1,1.4228162E2,1.2477021E1,2.9009317E1,2.6482605E1,5.7526283E0,2.6730268E0,7.336084E1,1.6964174E1,1.4635632E1,3.8185425E1,1.1332345E1,5.522689E1,1.4237366E1,8.202832E1,2.6830444E1,3.5886106E0,8.219421E0,9.345348E0,4.031511E0,7.2087097E0,4.4657593E0,7.219469E1,1.0039844E2,0E0,5.170471E0,0E0,1.6064377E0,0E0,0E0,0E0,0E0,0E0,0E0,0E0,0E0,0E0,0E0,0E0,0E0,0E0,0E0,0E0,0E0,0E0,0E0,0E0,0E0,0E0,0E0,0E0,0E0,0E0,0E0,0E0,0E0,0E0,0E0,0E0,0E0,0E0,0E0,0E0,0E0,0E0,0E0,0E0,0E0,0E0,0E0,0E0,0E0,0E0,0E0,0E0,0E0,0E0,0E0,0E0,0E0,0E0,0E0,0E0,0E0,0E0,0E0],"parents":[2147483647,0,0,1,1,2,2,3,3,4,4,5,5,6,6,7,7,8,8,9,9,10,10,11,11,12,12,13,13,14,14,15,15,16,16,17,17,18,18,19,19,20,20,21,21,22,22,23,23,24,24,25,25,26,26,27,27,28,28,29,29,30,30,31,31,32,32,33,33,35,35,36,36,37,37,38,38,39,39,40,40,41,41,42,42,43,43,44,44,45,45,46,46,47,47,48,48,49,49,50,50,51,51,52,52,53,53,54,54,55,55,56,56,57,57,58,58,60,60,62,62],"right_children":[2,4,6,8,10,12,14,16,18,20,22,24,26,28,30,32,34,36,38,40,42,44,46,48,50,52,54,56,58,60,62,64,66,68,-1,70,72,74,76,78,80,82,84,86,88,90,92,94,96,98,100,102,104,106,108,110,112,114,116,-1,118,-1,120,-1,-1,-1,-1,-1,-1,-1,-1,-1,-1,-1,-1,-1,-1,-1,-1,-1,-1,-1,-1,-1,-1,-1,-1,-1,-1,-1,-1,-1,-1,-1,-1,-1,-1,-1,-1,-1,-1,-1,-1,-1,-1,-1,-1,-1,-1,-1,-1,-1,-1,-1,-1,-1,-1,-1,-1,-1,-1],"split_conditions":[1.01E2,1E0,5.196E3,1E0,3.167E3,1E0,3.20676E5,1E0,1.6964E4,1.998E3,1.987E3,1E0,2.5E1,1.974E3,8.72631E5,1.964E3,1E0,1.983E3,1.5E7,1.5E1,5.6E1,8.229E3,6.8893E4,1E0,2.5E1,1.991E3,5.25E2,1.4513E4,1E0,3.2E7,1.1E8,1.955E3,1E0,2.29E3,-3.0733123E-1,7.404E3,1.5E1,6.6274E4,1.04528E5,6.2E1,1.094E3,1E0,1.5E1,1.952E3,1.976E3,1.5E1,1.8E7,1.977E3,6.26E2,2.4E1,1.313E3,1.11E2,1.168E3,1E0,2.02E3,1E0,6.8893E4,2.5E1,1.5E1,5.224709E-1,5.06832E5,7.026839E-1,1.42E2,2.2445573E-2,2.8300244E-1,-1.6244061E-1,1.7938672E-2,3.0178097E-1,4.140371E-1,-1.1150241E-1,2.0678829E-1,-3.977694E-1,-3.3281542E-2,4.102727E-2,2.7143615E-1,-1.7328438E-1,7.010516E-2,-3.5556987E-1,7.209914E-2,-2.3290664E-1,-1.0831014E-1,7.822226E-3,2.0363338E-1,-6.131572E-1,-3.1769797E-1,1.4969847E-1,-1.1814133E-1,2.1965061E-1,2.7295295E-2,-2.591526E-1,-4.0648403E-3,1.2567538E-1,-6.874008E-2,4.889806E-2,-9.697351E-2,-2.8977495E-1,4.185214E-1,7.4124455E-2,-2.2587325E-1,1.1060346E-1,2.4015325E-1,-1.6322666E-1,3.1289312E-3,-4.8064807E-1,-3.003494E-1,-3.5448316E-1,1.1427003E-1,-1.702082E-3,-1.5792935E-1,2.527945E-1,3.5299703E-1,4.370562E-1,5.4387456E-1,3.9007317E-2,2.498725E-1,1.8460585E-1,3.314886E-1,3.02172E-1,3.9976293E-1,3.695424E-1,6.0687894E-1],"split_indices":[1,18,7,8,7,18,7,13,7,0,0,14,3,0,7,0,16,0,2,3,1,7,7,13,3,0,7,7,14,2,2,7,14,7,0,7,3,7,7,4,7,11,3,0,0,3,2,0,6,3,7,1,7,14,0,14,7,3,3,0,7,0,1,0,0,0,0,0,0,0,0,0,0,0,0,0,0,0,0,0,0,0,0,0,0,0,0,0,0,0,0,0,0,0,0,0,0,0,0,0,0,0,0,0,0,0,0,0,0,0,0,0,0,0,0,0,0,0,0,0,0],"split_type":[0,0,0,0,0,0,0,0,0,0,0,0,0,0,0,0,0,0,0,0,0,0,0,0,0,0,0,0,0,0,0,0,0,0,0,0,0,0,0,0,0,0,0,0,0,0,0,0,0,0,0,0,0,0,0,0,0,0,0,0,0,0,0,0,0,0,0,0,0,0,0,0,0,0,0,0,0,0,0,0,0,0,0,0,0,0,0,0,0,0,0,0,0,0,0,0,0,0,0,0,0,0,0,0,0,0,0,0,0,0,0,0,0,0,0,0,0,0,0,0,0],"sum_hessian":[2.0577E4,1.1862E4,8.715E3,9.213E3,2.649E3,3.502E3,5.213E3,7.568E3,1.645E3,1.392E3,1.257E3,3.22E3,2.82E2,4.777E3,4.36E2,7.27E3,2.98E2,1.321E3,3.24E2,7.63E2,6.29E2,3.62E2,8.95E2,1.088E3,2.132E3,1.76E2,1.06E2,5.96E2,4.181E3,3.59E2,7.7E1,2.146E3,5.124E3,2.97E2,1E0,4.69E2,8.52E2,1.26E2,1.98E2,6.24E2,1.39E2,2.9E1,6E2,2.19E2,1.43E2,7.81E2,1.14E2,1.029E3,5.9E1,1.532E3,6E2,6.6E1,1.1E2,2.9E1,7.7E1,3.08E2,2.88E2,1.66E3,2.521E3,1.09E2,2.5E2,5E1,2.7E1,1.588E3,5.58E2,2.409E3,2.715E3,2.17E2,8E1,4.53E2,1.6E1,7.41E2,1.11E2,1E2,2.6E1,1.33E2,6.5E1,6.11E2,1.3E1,7E1,6.9E1,2.1E1,8E0,5.07E2,9.3E1,2.3E1,1.96E2,6.5E1,7.8E1,7.24E2,5.7E1,7.2E1,4.2E1,3.57E2,6.72E2,2E0,5.7E1,1.446E3,8.6E1,3.55E2,2.45E2,5.1E1,1.5E1,4.5E1,6.5E1,2.5E1,4E0,5.8E1,1.9E1,1.23E2,1.85E2,2.17E2,7.1E1,1.499E3,1.61E2,1.988E3,5.33E2,1.46E2,1.04E2,1.2E1,1.5E1],"tree_param":{"num_deleted":"0","num_feature":"27","num_nodes":"121","size_leaf_vector":"1"}},{"base_weights":[1.6555417E-4,-2.3080297E-1,3.320939E-1,-1.0473597E-1,-8.4840065E-1,1.0291885E-1,5.747674E-1,-5.495234E-2,-9.962548E-1,-5.1490337E-1,-1.022673E0,-1.903085E-2,6.575573E-1,4.8545092E-1,1.0543491E0,2.0020145E-1,-1.6076365E-1,-1.2050008E0,2.1862693E-1,-6.16253E-1,-9.5592715E-2,-1.156169E0,-4.5587635E-1,5.0258553E-1,-1.6956642E-1,1.2367816E0,5.580213E-1,9.2044646E-1,3.7848464E-1,1.2324717E0,8.160497E-1,-2.9395455E-2,4.538159E-1,-2.0788881E-1,7.7742267E-1,4.2675832E-1,-1.2693082E0,9.378292E-1,6.275635E-2,-8.1451E-1,-4.588194E-1,-5.740672E-1,4.706261E-2,-1.096714E0,-2.3482451E0,-6.0950667E-1,-3.2367222E-2,8.3458024E-1,3.7076464E-1,-1.9680965E-1,1.2555816E0,1.3346052E0,8.886585E-1,2.8380334E-1,7.6781976E-1,8.170507E-1,1.1353103E0,2.8551164E-1,7.571633E-1,1.5062886E0,1.1238704E0,6.8677646E-1,1.4211761E0,3.123613E-3,-8.928813E-2,1.0860092E-1,1.9640076E-1,-1.4641932E-1,-5.59239E-3,-1.8082555E-1,2.4030569E-1,2.9819152E-1,-3.7922874E-2,-2.856824E-1,-4.7120944E-1,1.8275951E-1,4.2225754E-1,-1.1769575E-2,2.4212259E-1,-2.8851444E-1,-1.7809662E-1,-8.376179E-2,-2.2557276E-1,9.100428E-2,-1.8364689E-1,5.182832E-2,-8.565363E-2,2.3426715E-2,-3.398442E-1,-2.6590818E-1,-7.463631E-1,-1.4362492E-1,-3.025276E-1,-3.2735195E-2,1.499856E-1,1.9674855E-1,3.0133295E-1,6.0459264E-2,1.9424187E-1,-8.031088E-2,1.0614594E-1,1.9483078E-1,4.0530902E-1,3.2113695E-1,4.306894E-1,1.7792933E-1,3.0597273E-1,1.4073272E-1,2.1218024E-2,1.9798505E-1,3.4695777E-1,2.6750785E-1,1.3260035E-1,3.76408E-1,2.6825184E-1,4.254274E-2,1.2803666E-1,1.8960665E-1,3.2615733E-1,4.554195E-1,4.9298145E-2,2.7655458E-1,3.828954E-1,1.4342934E-1,2.7600345E-1,3.2569557E-1,4.6223658E-1],"categories":[],"categories_nodes":[],"categories_segments":[],"categories_sizes":[],"default_left":[0,0,0,0,0,0,0,0,0,0,0,0,0,0,0,0,0,0,0,0,0,0,0,0,0,0,0,0,0,0,0,0,0,0,0,0,0,0,0,0,0,0,0,0,0,0,0,0,0,0,0,0,0,0,0,0,0,0,0,0,0,0,0,0,0,0,0,0,0,0,0,0,0,0,0,0,0,0,0,0,0,0,0,0,0,0,0,0,0,0,0,0,0,0,0,0,0,0,0,0,0,0,0,0,0,0,0,0,0,0,0,0,0,0,0,0,0,0,0,0,0,0,0,0,0,0,0],"id":1,"left_children":[1,3,5,7,9,11,13,15,17,19,21,23,25,27,29,31,33,35,37,39,41,43,45,47,49,51,53,55,57,59,61,63,65,67,69,71,73,75,77,79,81,83,85,87,89,91,93,95,97,99,101,103,105,107,109,111,113,115,117,119,121,123,125,-1,-1,-1,-1,-1,-1,-1,-1,-1,-1,-1,-1,-1,-1,-1,-1,-1,-1,-1,-1,-1,-1,-1,-1,-1,-1,-1,-1,-1,-1,-1,-1,-1,-1,-1,-1,-1,-1,-1,-1,-1,-1,-1,-1,-1,-1,-1,-1,-1,-1,-1,-1,-1,-1,-1,-1,-1,-1,-1,-1,-1,-1,-1,-1],"loss_changes":[1.5776888E3,9.4472644E2,4.6955157E2,4.4728195E2,1.1902478E2,2.9383197E2,1.7515271E2,2.5778357E2,1.354331E2,3.002893E1,1.0162085E2,2.7977994E2,4.4452637E1,1.6059839E2,2.6287292E1,1.6299655E2,2.9854962E2,4.8286743E1,8.797241E0,1.7417297E1,9.51473E0,7.481995E1,1.6831806E1,3.4614105E1,1.076E2,2.696228E0,3.8327515E1,1.4223755E1,9.758856E1,9.190857E0,2.0770966E1,1.5699215E1,2.4289429E1,3.407667E2,1.1001953E1,5.773404E0,4.035547E1,1.3035288E0,5.0418415E0,7.5892944E0,1.663578E1,1.2551336E0,4.564171E0,4.428003E1,8.205261E0,9.427879E0,2.9144418E0,6.203369E0,2.6702171E1,1.060382E2,2.131096E0,7.848816E-1,4.81287E-1,1.1496239E1,1.5128067E1,1.2595337E1,5.1825867E0,4.5253296E1,2.1903992E1,1.3466797E0,7.015625E0,1.08031845E1,2.536087E-1,0E0,0E0,0E0,0E0,0E0,0E0,0E0,0E0,0E0,0E0,0E0,0E0,0E0,0E0,0E0,0E0,0E0,0E0,0E0,0E0,0E0,0E0,0E0,0E0,0E0,0E0,0E0,0E0,0E0,0E0,0E0,0E0,0E0,0E0,0E0,0E0,0E0,0E0,0E0,0E0,0E0,0E0,0E0,0E0,0E0,0E0,0E0,0E0,0E0,0E0,0E0,0E0,0E0,0E0,0E0,0E0,0E0,0E0,0E0,0E0,0E0,0E0,0E0,0E0],"parents":[2147483647,0,0,1,1,2,2,3,3,4,4,5,5,6,6,7,7,8,8,9,9,10,10,11,11,12,12,13,13,14,14,15,15,16,16,17,17,18,18,19,19,20,20,21,21,22,22,23,23,24,24,25,25,26,26,27,27,28,28,29,29,30,30,31,31,32,32,33,33,34,34,35,35,36,36,37,37,38,38,39,39,40,40,41,41,42,42,43,43,44,44,45,45,46,46,47,47,48,48,49,49,50,50,51,51,52,52,53,53,54,54,55,55,56,56,57,57,58,58,59,59,60,60,61,61,62,62],"right_children":[2,4,6,8,10,12,14,16,18,20,22,24,26,28,30,32,34,36,38,40,42,44,46,48,50,52,54,56,58,60,62,64,66,68,70,72,74,76,78,80,82,84,86,88,90,92,94,96,98,100,102,104,106,108,110,112,114,116,118,120,122,124,126,-1,-1,-1,-1,-1,-1,-1,-1,-1,-1,-1,-1,-1,-1,-1,-1,-1,-1,-1,-1,-1,-1,-1,-1,-1,-1,-1,-1,-1,-1,-1,-1,-1,-1,-1,-1,-1,-1,-1,-1,-1,-1,-1,-1,-1,-1,-1,-1,-1,-1,-1,-1,-1,-1,-1,-1,-1,-1,-1,-1,-1,-1,-1,-1],"split_conditions":[5.768E3,1E0,1E0,1E0,1.984E3,1.38354E5,1.10065E5,1.966E3,3.1E1,1E0,1.5E1,1.986E3,1.995E3,1.986E3,3.2E7,8.28E2,1E0,7.4E1,1.33E2,1.313E3,9.03E2,3.9E1,2.348E3,1.962E3,1E0,2.8E7,2.37687E5,2.0549E4,1.5E1,1.995E3,5.06832E5,1E0,2.759E3,1E0,1.979E3,9.877E3,1.993E3,9.638E3,1E0,9E1,1E0,6E1,1.976E3,9.3E1,1.997E3,1.2199E4,1E0,1.173E4,2.0549E4,1.5E1,3.912E3,1.83893E5,1.99002E5,1E0,6.45076E5,4E6,3.45E6,2.2033E4,2.7153E4,2.0917E4,1.83893E5,1.28E2,6.45076E5,3.123613E-3,-8.928813E-2,1.0860092E-1,1.9640076E-1,-1.4641932E-1,-5.59239E-3,-1.8082555E-1,2.4030569E-1,2.9819152E-1,-3.7922874E-2,-2.856824E-1,-4.7120944E-1,1.8275951E-1,4.2225754E-1,-1.1769575E-2,2.4212259E-1,-2.8851444E-1,-1.7809662E-1,-8.376179E-2,-2.2557276E-1,9.100428E-2,-1.8364689E-1,5.182832E-2,-8.565363E-2,2.3426715E-2,-3.398442E-1,-2.6590818E-1,-7.463631E-1,-1.4362492E-1,-3.025276E-1,-3.2735195E-2,1.499856E-1,1.9674855E-1,3.0133295E-1,6.0459264E-2,1.9424187E-1,-8.031088E-2,1.0614594E-1,1.9483078E-1,4.0530902E-1,3.2113695E-1,4.306894E-1,1.7792933E-1,3.0597273E-1,1.4073272E-1,2.1218024E-2,1.9798505E-1,3.4695777E-1,2.6750785E-1,1.3260035E-1,3.76408E-1,2.6825184E-1,4.254274E-2,1.2803666E-1,1.8960665E-1,3.2615733E-1,4.554195E-1,4.9298145E-2,2.7655458E-1,3.828954E-1,1.4342934E-1,2.7600345E-1,3.2569557E-1,4.6223658E-1],"split_indices":[7,18,14,22,0,7,7,0,3,20,3,0,0,0,2,7,13,7,7,7,7,4,7,0,13,2,7,7,3,0,7,9,7,14,0,6,0,5,21,1,22,1,0,7,0,5,16,7,7,3,6,7,7,8,7,2,2,7,7,6,7,1,7,0,0,0,0,0,0,0,0,0,0,0,0,0,0,0,0,0,0,0,0,0,0,0,0,0,0,0,0,0,0,0,0,0,0,0,0,0,0,0,0,0,0,0,0,0,0,0,0,0,0,0,0,0,0,0,0,0,0,0,0,0,0,0,0],"split_type":[0,0,0,0,0,0,0,0,0,0,0,0,0,0,0,0,0,0,0,0,0,0,0,0,0,0,0,0,0,0,0,0,0,0,0,0,0,0,0,0,0,0,0,0,0,0,0,0,0,0,0,0,0,0,0,0,0,0,0,0,0,0,0,0,0,0,0,0,0,0,0,0,0,0,0,0,0,0,0,0,0,0,0,0,0,0,0,0,0,0,0,0,0,0,0,0,0,0,0,0,0,0,0,0,0,0,0,0,0,0,0,0,0,0,0,0,0,0,0,0,0,0,0,0,0,0,0],"sum_hessian":[2.0577E4,1.2134E4,8.443E3,1.0078E4,2.056E3,4.343E3,4.1E3,9.546E3,5.32E2,7.07E2,1.349E3,3.561E3,7.82E2,3.458E3,6.42E2,2.798E3,6.748E3,4.54E2,7.8E1,5.69E2,1.38E2,1.091E3,2.58E2,7.97E2,2.764E3,1.13E2,6.69E2,6.81E2,2.777E3,3.65E2,2.77E2,1.469E3,1.329E3,6.426E3,3.22E2,1.7E1,4.37E2,1.3E1,6.5E1,2.5E2,3.19E2,3.1E1,1.07E2,1.041E3,5E1,1.89E2,6.9E1,2.25E2,5.72E2,2.713E3,5.1E1,8.6E1,2.7E1,2.91E2,3.78E2,4.63E2,2.18E2,2.231E3,5.46E2,1E2,2.65E2,2.3E2,4.7E1,1.28E3,1.89E2,9.14E2,4.15E2,2.59E3,3.836E3,5E0,3.17E2,8E0,9E0,2.15E2,2.22E2,9E0,4E0,5.8E1,7E0,1.48E2,1.02E2,1.99E2,1.2E2,1E0,3E1,7.8E1,2.9E1,3.1E1,1.01E3,5E0,4.5E1,1.44E2,4.5E1,6.1E1,8E0,1.12E2,1.13E2,3.56E2,2.16E2,2.404E3,3.09E2,8E0,4.3E1,2.7E1,5.9E1,1E1,1.7E1,1.55E2,1.36E2,2.98E2,8E1,3.85E2,7.8E1,1.43E2,7.5E1,1.107E3,1.124E3,3.98E2,1.48E2,9.9E1,1E0,1.17E2,1.48E2,1.23E2,1.07E2,1.5E1,3.2E1],"tree_param":{"num_deleted":"0","num_feature":"27","num_nodes":"127","size_leaf_vector":"1"}},{"base_weights":[3.7484654E-4,-1.6898969E-1,2.7225E-1,-7.854419E-2,-4.92242E-1,4.0802706E-2,3.6007646E-1,-2.0715505E-1,1.23569414E-1,-7.3117673E-1,-3.0477268E-1,7.716315E-2,-4.333192E-1,2.4171166E-1,4.9395108E-1,7.9043664E-2,-3.201499E-1,5.762103E-1,3.6447167E-2,3.6569676E-1,-7.696963E-1,3.3784878E-2,-3.7882546E-1,1.3245803E-1,-2.3299335E-1,-2.2783477E-2,-6.403588E-1,6.0383576E-1,1.8789645E-1,4.0149572E-1,6.4385504E-1,-4.946949E-2,2.2102073E-1,3.038167E-1,-3.9040998E-1,4.872861E-1,9.057869E-1,-5.2353635E-2,4.4187245E-1,1.3389213E-1,9.340506E-1,-5.654099E-1,-1.0348418E0,-6.8457353E-1,1.3920169E-1,-5.0415665E-1,-3.0921327E-2,4.5968577E-2,3.088825E-1,-4.813472E-1,1.526076E-2,-1.0898194E-1,6.706014E-1,-1.0072855E0,-3.265708E-1,5.013976E-1,7.4987763E-1,1.4120175E-1,4.8156837E-1,3.1996796E-1,6.652287E-1,8.959129E-1,4.5735174E-1,-3.3555873E-2,2.3912808E-2,7.479027E-2,-1.9402857E-1,-3.364253E-2,1.9527481E-1,-1.4486255E-1,5.0853384E-3,1.563946E-1,-5.482826E-4,2.920846E-1,1.2776558E-1,1.577589E-2,-1.2950666E-1,2.3708127E-1,5.9863456E-2,9.998138E-2,-3.0299101E-2,3.2491088E-1,-1.0571859E-1,-6.709959E-2,-1.8909246E-1,-3.7122843E-1,-1.8526566E-1,6.1749622E-2,-3.991137E-1,8.7613E-2,-5.390542E-2,-1.3689552E-1,-2.771566E-1,4.1115623E-2,-1.1598539E-1,2.3440959E-2,-2.1359488E-1,5.2747168E-2,1.4914533E-1,1.5254609E-2,-2.3416424E-1,8.2790576E-2,-1.12814136E-1,-5.1138803E-2,1.8297651E-1,-5.1870633E-2,2.621648E-1,-3.570884E-1,-3.0697618E-2,-1.3697733E-1,5.9716348E-2,1.654054E-1,5.0650585E-2,2.4551919E-1,1.7883123E-1,2.3310937E-2,1.2341001E-1,1.6712809E-1,1.727399E-2,1.581822E-1,4.8156735E-2,2.5812852E-1,1.023325E-1,2.8261024E-1,1.4592338E-1,1.00171156E-1,2.1648191E-1],"categories":[],"categories_nodes":[],"categories_segments":[],"categories_sizes":[],"default_left":[0,0,0,0,0,0,0,0,0,0,0,0,0,0,0,0,0,0,0,0,0,0,0,0,0,0,0,0,0,0,0,0,0,0,0,0,0,0,0,0,0,0,0,0,0,0,0,0,0,0,0,0,0,0,0,0,0,0,0,0,0,0,0,0,0,0,0,0,0,0,0,0,0,0,0,0,0,0,0,0,0,0,0,0,0,0,0,0,0,0,0,0,0,0,0,0,0,0,0,0,0,0,0,0,0,0,0,0,0,0,0,0,0,0,0,0,0,0,0,0,0,0,0,0,0,0,0],"id":2,"left_children":[1,3,5,7,9,11,13,15,17,19,21,23,25,27,29,31,33,35,37,39,41,43,45,47,49,51,53,55,57,59,61,63,65,67,69,71,73,75,77,79,81,83,85,87,89,91,93,95,97,99,101,103,105,107,109,111,113,115,117,119,121,123,125,-1,-1,-1,-1,-1,-1,-1,-1,-1,-1,-1,-1,-1,-1,-1,-1,-1,-1,-1,-1,-1,-1,-1,-1,-1,-1,-1,-1,-1,-1,-1,-1,-1,-1,-1,-1,-1,-1,-1,-1,-1,-1,-1,-1,-1,-1,-1,-1,-1,-1,-1,-1,-1,-1,-1,-1,-1,-1,-1,-1,-1,-1,-1,-1],"loss_changes":[9.475809E2,3.7068286E2,1.605498E2,2.5760016E2,1.2394318E2,3.751164E1,9.061493E1,1.9587015E2,1.5196185E2,5.1743286E1,3.8998398E1,3.4674E1,1.31599655E1,5.914891E1,3.6968018E1,3.1302689E1,1.9047168E2,1.7787796E1,1.16417885E2,5.4083138E0,6.3167786E1,2.1298864E1,5.5622147E1,2.615474E1,1.8873735E1,3.2408252E0,1.1530182E1,5.5034027E0,3.6257538E1,3.5565735E1,4.768109E1,7.26973E0,2.0162174E1,6.3599724E1,1.4702142E2,8.189888E0,3.8495255E0,1.05631775E2,4.8894135E1,1.4854511E0,2.6815987E0,1.4652161E1,4.2434326E1,2.0974869E1,1.199356E1,1.8411285E1,2.0307415E1,2.8143402E1,1.4041218E1,2.4402367E1,1.5814399E1,2.2255073E0,1.1799064E0,7.662155E0,3.9863772E0,3.7942848E0,1.1979904E0,3.9201756E1,1.159185E1,4.199312E1,2.450763E1,7.738617E0,1.9005829E1,0E0,0E0,0E0,0E0,0E0,0E0,0E0,0E0,0E0,0E0,0E0,0E0,0E0,0E0,0E0,0E0,0E0,0E0,0E0,0E0,0E0,0E0,0E0,0E0,0E0,0E0,0E0,0E0,0E0,0E0,0E0,0E0,0E0,0E0,0E0,0E0,0E0,0E0,0E0,0E0,0E0,0E0,0E0,0E0,0E0,0E0,0E0,0E0,0E0,0E0,0E0,0E0,0E0,0E0,0E0,0E0,0E0,0E0,0E0,0E0,0E0,0E0,0E0,0E0],"parents":[2147483647,0,0,1,1,2,2,3,3,4,4,5,5,6,6,7,7,8,8,9,9,10,10,11,11,12,12,13,13,14,14,15,15,16,16,17,17,18,18,19,19,20,20,21,21,22,22,23,23,24,24,25,25,26,26,27,27,28,28,29,29,30,30,31,31,32,32,33,33,34,34,35,35,36,36,37,37,38,38,39,39,40,40,41,41,42,42,43,43,44,44,45,45,46,46,47,47,48,48,49,49,50,50,51,51,52,52,53,53,54,54,55,55,56,56,57,57,58,58,59,59,60,60,61,61,62,62],"right_children":[2,4,6,8,10,12,14,16,18,20,22,24,26,28,30,32,34,36,38,40,42,44,46,48,50,52,54,56,58,60,62,64,66,68,70,72,74,76,78,80,82,84,86,88,90,92,94,96,98,100,102,104,106,108,110,112,114,116,118,120,122,124,126,-1,-1,-1,-1,-1,-1,-1,-1,-1,-1,-1,-1,-1,-1,-1,-1,-1,-1,-1,-1,-1,-1,-1,-1,-1,-1,-1,-1,-1,-1,-1,-1,-1,-1,-1,-1,-1,-1,-1,-1,-1,-1,-1,-1,-1,-1,-1,-1,-1,-1,-1,-1,-1,-1,-1,-1,-1,-1,-1,-1,-1,-1,-1,-1],"split_conditions":[1.03E2,1E0,2.505E3,2.949E3,2.29E3,1E0,1.18E2,1.958E3,1.975E3,6.1E1,1.976E3,1E0,2.001E3,1.973E3,5.7927E4,5.72E2,9.3E1,1.3704E4,6.3702E4,5.11E2,1.999E3,7.2E1,2.8327E4,2.5E1,3.1E1,1E0,2.5E1,1.0409E4,1.5E1,2.9E1,3.5E7,8.4E1,1E0,2.01E3,1.5E1,1E0,1E0,1.2E7,1.7E7,2.018E3,5.5E1,1.965E3,9.1E1,1.946E3,1E0,1E0,1.3E7,2.4E1,7.69E2,1.977E3,5.4E1,1.998E3,2.28E2,2.023E3,1E0,1E0,1.965E3,1.10065E5,2.02E3,1.994E3,1E0,2.02E3,3.63792E5,-3.3555873E-2,2.3912808E-2,7.479027E-2,-1.9402857E-1,-3.364253E-2,1.9527481E-1,-1.4486255E-1,5.0853384E-3,1.563946E-1,-5.482826E-4,2.920846E-1,1.2776558E-1,1.577589E-2,-1.2950666E-1,2.3708127E-1,5.9863456E-2,9.998138E-2,-3.0299101E-2,3.2491088E-1,-1.0571859E-1,-6.709959E-2,-1.8909246E-1,-3.7122843E-1,-1.8526566E-1,6.1749622E-2,-3.991137E-1,8.7613E-2,-5.390542E-2,-1.3689552E-1,-2.771566E-1,4.1115623E-2,-1.1598539E-1,2.3440959E-2,-2.1359488E-1,5.2747168E-2,1.4914533E-1,1.5254609E-2,-2.3416424E-1,8.2790576E-2,-1.12814136E-1,-5.1138803E-2,1.8297651E-1,-5.1870633E-2,2.621648E-1,-3.570884E-1,-3.0697618E-2,-1.3697733E-1,5.9716348E-2,1.654054E-1,5.0650585E-2,2.4551919E-1,1.7883123E-1,2.3310937E-2,1.2341001E-1,1.6712809E-1,1.727399E-2,1.581822E-1,4.8156735E-2,2.5812852E-1,1.023325E-1,2.8261024E-1,1.4592338E-1,1.00171156E-1,2.1648191E-1],"split_indices":[1,18,7,7,7,18,1,0,0,1,0,8,0,0,7,7,7,7,7,7,0,1,7,3,3,16,3,7,3,3,2,1,22,0,3,22,8,2,2,0,1,0,1,0,22,8,2,3,7,0,3,0,7,0,14,9,0,7,0,0,8,0,7,0,0,0,0,0,0,0,0,0,0,0,0,0,0,0,0,0,0,0,0,0,0,0,0,0,0,0,0,0,0,0,0,0,0,0,0,0,0,0,0,0,0,0,0,0,0,0,0,0,0,0,0,0,0,0,0,0,0,0,0,0,0,0,0],"split_type":[0,0,0,0,0,0,0,0,0,0,0,0,0,0,0,0,0,0,0,0,0,0,0,0,0,0,0,0,0,0,0,0,0,0,0,0,0,0,0,0,0,0,0,0,0,0,0,0,0,0,0,0,0,0,0,0,0,0,0,0,0,0,0,0,0,0,0,0,0,0,0,0,0,0,0,0,0,0,0,0,0,0,0,0,0,0,0,0,0,0,0,0,0,0,0,0,0,0,0,0,0,0,0,0,0,0,0,0,0,0,0,0,0,0,0,0,0,0,0,0,0,0,0,0,0,0,0],"sum_hessian":[2.0577E4,1.2679E4,7.898E3,9.908E3,2.771E3,2.173E3,5.725E3,6.055E3,3.853E3,1.217E3,1.554E3,2.019E3,1.54E2,3.04E3,2.685E3,1.714E3,4.341E3,6.21E2,3.232E3,4.1E1,1.176E3,2.79E2,1.275E3,1.714E3,3.05E2,5.2E1,1.02E2,3.92E2,2.648E3,1.663E3,1.022E3,9E2,8.14E2,4.39E2,3.902E3,4.91E2,1.3E2,2.652E3,5.8E2,3E1,1.1E1,6.66E2,5.1E2,3.5E1,2.44E2,9.37E2,3.38E2,1.151E3,5.63E2,1.52E2,1.53E2,4.7E1,5E0,4.6E1,5.6E1,2.33E2,1.59E2,2.286E3,3.62E2,1.272E3,3.91E2,4.33E2,5.89E2,6.07E2,2.93E2,7.89E2,2.5E1,2E2,2.39E2,3.18E3,7.22E2,4.59E2,3.2E1,1.13E2,1.7E1,2.078E3,5.74E2,2.37E2,3.43E2,1.6E1,1.4E1,1E1,1E0,1.07E2,5.59E2,3.42E2,1.68E2,1.5E1,2E1,1.65E2,7.9E1,8.43E2,9.4E1,2.3E2,1.08E2,1.105E3,4.6E1,3.31E2,2.32E2,5.5E1,9.7E1,9.2E1,6.1E1,4.4E1,3E0,1E0,4E0,3.8E1,8E0,4.5E1,1.1E1,2.02E2,3.1E1,1.07E2,5.2E1,1.852E3,4.34E2,3.07E2,5.5E1,5.52E2,7.2E2,2.43E2,1.48E2,3.88E2,4.5E1,4.03E2,1.86E2],"tree_param":{"num_deleted":"0","num_feature":"27","num_nodes":"127","size_leaf_vector":"1"}},{"base_weights":[3.235878E-4,-1.7915048E-1,1.4514458E-1,-2.8855005E-1,2.0032518E-2,5.698723E-2,2.9665473E-1,-3.2520884E-1,5.7846415E-1,-1.0721766E-1,2.0847149E-1,-7.977118E-2,1.4937659E-1,4.366935E-1,1.4168896E-1,-2.8479453E-2,-4.337963E-1,4.482116E-1,6.630912E-1,6.0047144E-1,-1.4066006E-1,2.9295906E-1,-2.4162423E-2,-1.11060895E-1,6.8697745E-1,1.9422829E-1,-6.0681682E-2,5.763083E-1,3.0941418E-1,3.7963788E-3,4.0614596E-1,2.6335731E-2,-4.00574E-1,-5.4425025E-1,-7.017015E-2,3.504174E-1,7.701181E-1,8.455514E-1,5.4753137E-1,-1.7153908E-1,8.30056E-1,8.536709E-2,-2.3667876E-1,2.376712E-1,6.5546525E-1,2.35894E-1,-2.1715401E-1,1.454435E-1,-2.2365403E-1,-9.4856435E-1,7.246528E-1,2.3111837E-1,-7.048474E-2,2.0982288E-1,-1.6355012E-1,4.6440753E-1,6.881769E-1,2.321288E-1,5.197596E-1,-4.495341E-2,4.962197E-1,3.5315374E-1,9.303723E-1,-1.0505182E-2,1.1648321E-1,-1.3662253E-1,1.994662E-1,2.0500791E-1,-1.767163E-1,7.0882715E-2,-6.259564E-2,1.1429736E-1,-1.5921989E-1,2.5555283E-1,-1.419149E-1,2.6506335E-1,1.18304804E-1,1.4382572E-1,2.8679565E-1,1.948392E-1,-1.6297136E-1,-3.0728546E-1,2.7053028E-1,-4.2080697E-2,4.8112318E-2,-8.9773834E-2,-4.7978E-5,8.238595E-2,-4.2564318E-2,-2.5433037E-1,2.0588975E-1,1.1492026E-1,3.8355157E-2,-9.759296E-2,3.2835208E-2,-2.0830644E-2,7.816737E-2,-1.0306453E-1,3.395822E-2,-3.3426978E-2,-3.93427E-1,1.9692111E-1,3.466533E-1,3.200593E-2,9.759421E-2,-1.5542514E-2,-4.1822937E-1,6.9578305E-2,-2.943087E-1,-6.029176E-2,1.7021798E-1,1.7737326E-1,6.860849E-2,1.8749654E-1,2.497261E-1,4.050152E-2,1.20307915E-1,1.8341914E-1,5.5798333E-2,-5.9075322E-2,1.7871665E-2,1.6204928E-1,-5.2661333E-2,1.622447E-1,5.8635086E-2,4.508703E-1,2.5613514E-1],"categories":[],"categories_nodes":[],"categories_segments":[],"categories_sizes":[],"default_left":[0,0,0,0,0,0,0,0,0,0,0,0,0,0,0,0,0,0,0,0,0,0,0,0,0,0,0,0,0,0,0,0,0,0,0,0,0,0,0,0,0,0,0,0,0,0,0,0,0,0,0,0,0,0,0,0,0,0,0,0,0,0,0,0,0,0,0,0,0,0,0,0,0,0,0,0,0,0,0,0,0,0,0,0,0,0,0,0,0,0,0,0,0,0,0,0,0,0,0,0,0,0,0,0,0,0,0,0,0,0,0,0,0,0,0,0,0,0,0,0,0,0,0,0,0,0,0],"id":3,"left_children":[1,3,5,7,9,11,13,15,17,19,21,23,25,27,29,31,33,35,37,39,41,43,45,47,49,51,53,55,57,59,61,63,65,67,69,71,73,75,77,79,81,83,85,87,89,91,93,95,97,99,101,103,105,107,109,111,113,115,117,119,121,123,125,-1,-1,-1,-1,-1,-1,-1,-1,-1,-1,-1,-1,-1,-1,-1,-1,-1,-1,-1,-1,-1,-1,-1,-1,-1,-1,-1,-1,-1,-1,-1,-1,-1,-1,-1,-1,-1,-1,-1,-1,-1,-1,-1,-1,-1,-1,-1,-1,-1,-1,-1,-1,-1,-1,-1,-1,-1,-1,-1,-1,-1,-1,-1,-1],"loss_changes":[5.348815E2,2.002608E2,1.521029E2,1.8872897E2,7.8169556E1,9.099671E1,9.084454E1,1.8339008E2,2.3593063E0,4.61401E1,2.5833332E1,6.974715E1,4.0505272E1,3.8915863E1,7.256711E1,3.1135504E1,1.6732501E2,2.815237E0,2.5732841E0,1.5739658E1,4.036577E1,1.9164894E1,1.766746E1,8.0638374E1,7.7120285E0,3.460492E1,2.1098888E1,1.2799438E1,1.862323E1,3.1445549E1,1.8617348E1,2.9570055E1,1.1753889E1,1.761886E2,4.129829E1,2.2765932E0,2.6381073E0,5.772705E-1,2.073368E0,6.7612953E0,9.966156E0,9.41551E0,1.9311806E1,1.1791016E1,6.468334E0,2.336196E0,7.171095E0,2.1092878E1,7.8388115E1,7.651696E-1,2.534958E0,3.64057E1,1.065638E1,5.729143E0,1.513119E1,1.5620499E1,4.2375336E0,1.3807213E1,9.337181E0,1.8945656E1,3.578186E0,1.827275E1,1.4354973E0,0E0,0E0,0E0,0E0,0E0,0E0,0E0,0E0,0E0,0E0,0E0,0E0,0E0,0E0,0E0,0E0,0E0,0E0,0E0,0E0,0E0,0E0,0E0,0E0,0E0,0E0,0E0,0E0,0E0,0E0,0E0,0E0,0E0,0E0,0E0,0E0,0E0,0E0,0E0,0E0,0E0,0E0,0E0,0E0,0E0,0E0,0E0,0E0,0E0,0E0,0E0,0E0,0E0,0E0,0E0,0E0,0E0,0E0,0E0,0E0,0E0,0E0,0E0,0E0],"parents":[2147483647,0,0,1,1,2,2,3,3,4,4,5,5,6,6,7,7,8,8,9,9,10,10,11,11,12,12,13,13,14,14,15,15,16,16,17,17,18,18,19,19,20,20,21,21,22,22,23,23,24,24,25,25,26,26,27,27,28,28,29,29,30,30,31,31,32,32,33,33,34,34,35,35,36,36,37,37,38,38,39,39,40,40,41,41,42,42,43,43,44,44,45,45,46,46,47,47,48,48,49,49,50,50,51,51,52,52,53,53,54,54,55,55,56,56,57,57,58,58,59,59,60,60,61,61,62,62],"right_children":[2,4,6,8,10,12,14,16,18,20,22,24,26,28,30,32,34,36,38,40,42,44,46,48,50,52,54,56,58,60,62,64,66,68,70,72,74,76,78,80,82,84,86,88,90,92,94,96,98,100,102,104,106,108,110,112,114,116,118,120,122,124,126,-1,-1,-1,-1,-1,-1,-1,-1,-1,-1,-1,-1,-1,-1,-1,-1,-1,-1,-1,-1,-1,-1,-1,-1,-1,-1,-1,-1,-1,-1,-1,-1,-1,-1,-1,-1,-1,-1,-1,-1,-1,-1,-1,-1,-1,-1,-1,-1,-1,-1,-1,-1,-1,-1,-1,-1,-1,-1,-1,-1,-1,-1,-1,-1],"split_conditions":[9.6E1,1E0,1.6449E4,1E0,1.621E3,1E0,1.9474588E7,1.969E3,8.1E1,5.3E1,1E0,1E0,1E0,2.005E3,1.83893E5,1E0,1.2858E4,9.31E2,2.015E3,3E0,1.957E3,1.5E1,2.004E3,1.978E3,6.26E2,4.5E6,1.984E3,3.9919E4,7.2793E4,1E0,8.72631E5,3.609E3,1.3317E4,6.3E1,1.999E3,3.5E4,2.02E3,6.4E4,1.7E1,2.009E3,3.85E2,7.3E1,1.5E1,8.5E6,2.45E2,1.966E3,1E0,1.283E3,3.1E1,2.014E3,1.27E2,1.551E3,1.3735E4,1.15E7,1E0,5E6,1.22E2,1.15E2,1E0,5.7927E4,9E7,6.8E7,1.01E2,-1.0505182E-2,1.1648321E-1,-1.3662253E-1,1.994662E-1,2.0500791E-1,-1.767163E-1,7.0882715E-2,-6.259564E-2,1.1429736E-1,-1.5921989E-1,2.5555283E-1,-1.419149E-1,2.6506335E-1,1.18304804E-1,1.4382572E-1,2.8679565E-1,1.948392E-1,-1.6297136E-1,-3.0728546E-1,2.7053028E-1,-4.2080697E-2,4.8112318E-2,-8.9773834E-2,-4.7978E-5,8.238595E-2,-4.2564318E-2,-2.5433037E-1,2.0588975E-1,1.1492026E-1,3.8355157E-2,-9.759296E-2,3.2835208E-2,-2.0830644E-2,7.816737E-2,-1.0306453E-1,3.395822E-2,-3.3426978E-2,-3.93427E-1,1.9692111E-1,3.466533E-1,3.200593E-2,9.759421E-2,-1.5542514E-2,-4.1822937E-1,6.9578305E-2,-2.943087E-1,-6.029176E-2,1.7021798E-1,1.7737326E-1,6.860849E-2,1.8749654E-1,2.497261E-1,4.050152E-2,1.20307915E-1,1.8341914E-1,5.5798333E-2,-5.9075322E-2,1.7871665E-2,1.6204928E-1,-5.2661333E-2,1.622447E-1,5.8635086E-2,4.508703E-1,2.5613514E-1],"split_indices":[1,14,7,13,7,14,2,0,1,1,24,13,24,0,7,22,7,7,0,1,0,3,0,0,6,2,0,7,7,17,7,7,7,1,0,2,0,2,3,0,5,1,3,2,5,0,12,7,3,0,1,7,5,2,17,2,1,1,18,7,2,2,1,0,0,0,0,0,0,0,0,0,0,0,0,0,0,0,0,0,0,0,0,0,0,0,0,0,0,0,0,0,0,0,0,0,0,0,0,0,0,0,0,0,0,0,0,0,0,0,0,0,0,0,0,0,0,0,0,0,0,0,0,0,0,0,0],"split_type":[0,0,0,0,0,0,0,0,0,0,0,0,0,0,0,0,0,0,0,0,0,0,0,0,0,0,0,0,0,0,0,0,0,0,0,0,0,0,0,0,0,0,0,0,0,0,0,0,0,0,0,0,0,0,0,0,0,0,0,0,0,0,0,0,0,0,0,0,0,0,0,0,0,0,0,0,0,0,0,0,0,0,0,0,0,0,0,0,0,0,0,0,0,0,0,0,0,0,0,0,0,0,0,0,0,0,0,0,0,0,0,0,0,0,0,0,0,0,0,0,0,0,0,0,0,0,0],"sum_hessian":[2.0577E4,9.189E3,1.1388E4,5.931E3,3.258E3,7.2E3,4.188E3,5.691E3,2.4E2,1.945E3,1.313E3,2.903E3,4.297E3,2.199E3,1.989E3,1.525E3,4.166E3,9.7E1,1.43E2,8.7E1,1.858E3,9.63E2,3.5E2,2.79E3,1.13E2,3.541E3,7.56E2,1.047E3,1.152E3,1.308E3,6.81E2,1.33E3,1.95E2,3.195E3,9.71E2,7.6E1,2.1E1,5.3E1,9E1,2E1,6.7E1,5.54E2,1.304E3,8.37E2,1.26E2,1.49E2,2.01E2,8.51E2,1.939E3,2E0,1.11E2,3.108E3,4.33E2,2.08E2,5.48E2,5.26E2,5.21E2,8.44E2,3.08E2,1.191E3,1.17E2,6.2E2,6.1E1,1.138E3,1.92E2,1.86E2,9E0,1.12E2,3.083E3,3.02E2,6.69E2,7.4E1,2E0,2E1,1E0,4.8E1,5E0,7.9E1,1.1E1,6E0,1.4E1,2E0,6.5E1,1.38E2,4.16E2,1.031E3,2.73E2,7.63E2,7.4E1,2E0,1.24E2,6.2E1,8.7E1,1.51E2,5E1,2.97E2,5.54E2,1.43E3,5.09E2,1E0,1E0,9.8E1,1.3E1,1.34E3,1.768E3,4.28E2,5E0,2.05E2,3E0,5.22E2,2.6E1,3.41E2,1.85E2,3.66E2,1.55E2,5.37E2,3.07E2,2.41E2,6.7E1,4.85E2,7.06E2,1.1E2,7E0,2.82E2,3.38E2,5E0,5.6E1],"tree_param":{"num_deleted":"0","num_feature":"27","num_nodes":"127","size_leaf_vector":"1"}},{"base_weights":[3.6472993E-4,-1.5423977E-1,8.5519515E-2,-1.0602206E-1,-5.234596E-1,-5.7761386E-2,1.4274429E-1,4.7771968E-2,-1.7268468E-1,-5.7142144E-1,7.528116E-1,1.3142084E-1,-1.0702017E-1,1.9157845E-1,-3.3536196E-2,-4.10463E-2,2.130028E-1,4.6355394E-1,-2.0870273E-1,-9.3763274E-1,-4.2733648E-1,1.0275155E0,1.5993947E-1,1.1488598E-1,6.727949E-1,-1.888362E-1,2.801651E-2,2.288192E-1,-3.578753E-2,7.421206E-1,-5.7200626E-2,-7.814658E-3,-2.935989E-1,-1.1800035E-1,2.6080257E-1,3.4648064E-1,9.176083E-1,-3.284772E-1,-8.337879E-2,-5.5104786E-1,-1.97003E0,-5.804822E-1,-1.9282615E-1,1.2262491E0,5.512925E-1,-4.055357E-1,4.226846E-1,-8.911289E-3,1.7619407E-1,9.257476E-3,8.565965E-1,3.7885046E-1,-2.2620833E-1,1.23540774E-1,-1.4986876E-1,2.0094852E-1,5.181661E-1,-8.7304376E-2,2.4382398E-1,1.0988039E0,6.019238E-1,-2.0928493E-1,5.83856E-2,1.8203784E-2,-3.2799423E-2,-1.3202968E-1,1.5451025E-2,2.4397406E-1,-5.9106514E-2,7.212449E-2,2.0491756E-1,1.9091605E-1,1.130073E-2,3.669244E-1,2.1973115E-1,-1.0963801E-1,9.481321E-2,-3.718966E-2,1.1170346E-1,-1.9817409E-1,3.0570185E-2,-6.450835E-2,-6.166869E-1,-1.9884947E-1,4.288985E-2,-3.0614559E-2,-2.4836428E-1,4.292107E-1,1.7162788E-1,2.836032E-2,2.0633684E-1,-1.4834924E-1,-2.0797564E-2,1.6282767E-1,1.2492371E-2,-1.8357888E-2,9.554316E-2,6.33339E-2,-1.3743998E-2,-9.279785E-2,7.376426E-2,2.7020255E-1,1.6089035E-2,2.9268771E-2,2.5107673E-1,-7.503296E-2,1.2613422E-1,-1.6100572E-2,1.022832E-1,-1.0927684E-1,1.3416042E-2,3.8484924E-2,1.006196E-1,1.3617337E-1,2.3219727E-1,-9.590227E-3,-1.1509936E-1,2.0974301E-1,5.2576154E-2,3.4825665E-1,2.5204683E-2,-1.3545571E-1,1.9061023E-1,-6.848332E-2,1.9392295E-1,3.688575E-3,1.0183796E-1],"categories":[],"categories_nodes":[],"categories_segments":[],"categories_sizes":[],"default_left":[0,0,0,0,0,0,0,0,0,0,0,0,0,0,0,0,0,0,0,0,0,0,0,0,0,0,0,0,0,0,0,0,0,0,0,0,0,0,0,0,0,0,0,0,0,0,0,0,0,0,0,0,0,0,0,0,0,0,0,0,0,0,0,0,0,0,0,0,0,0,0,0,0,0,0,0,0,0,0,0,0,0,0,0,0,0,0,0,0,0,0,0,0,0,0,0,0,0,0,0,0,0,0,0,0,0,0,0,0,0,0,0,0,0,0,0,0,0,0,0,0,0,0,0,0,0,0],"id":4,"left_children":[1,3,5,7,9,11,13,15,17,19,21,23,25,27,29,31,33,35,37,39,41,43,45,47,49,51,53,55,57,59,61,63,65,67,69,71,73,75,77,79,81,83,85,87,89,91,93,95,97,99,101,103,105,107,109,111,113,115,117,119,121,123,125,-1,-1,-1,-1,-1,-1,-1,-1,-1,-1,-1,-1,-1,-1,-1,-1,-1,-1,-1,-1,-1,-1,-1,-1,-1,-1,-1,-1,-1,-1,-1,-1,-1,-1,-1,-1,-1,-1,-1,-1,-1,-1,-1,-1,-1,-1,-1,-1,-1,-1,-1,-1,-1,-1,-1,-1,-1,-1,-1,-1,-1,-1,-1,-1],"loss_changes":[2.7092902E2,1.300662E2,1.0881187E2,6.629971E1,5.209337E1,3.5314007E1,8.16409E1,2.8714052E1,1.03471146E2,4.2550476E1,4.8844547E0,6.9317617E0,3.321608E1,6.288623E1,3.781802E1,1.068166E1,1.08529415E1,1.2546215E1,6.406792E1,9.0310394E1,2.0933815E1,1.311449E0,1.8057481E0,5.7773895E0,2.7971325E0,3.98014E1,1.9304842E1,5.1354126E1,1.5088607E1,2.3889618E0,3.5134758E1,7.8360286E0,7.5051785E0,6.56242E0,4.983837E0,1.7344141E1,1.8758469E0,5.214995E1,3.8666504E1,1.2082508E1,8.871353E0,2.1184494E1,1.3347679E1,1.0539265E0,4.3374872E-1,8.535838E-2,3.4342682E-1,4.3499413E0,3.9555712E0,5.283634E-1,5.887823E-1,1.4864958E1,2.726146E1,2.8488922E1,1.6578094E1,5.6837204E1,8.853958E0,1.448504E1,4.966546E0,9.0997696E-1,1.9075031E0,1.4173073E1,1.4712492E1,0E0,0E0,0E0,0E0,0E0,0E0,0E0,0E0,0E0,0E0,0E0,0E0,0E0,0E0,0E0,0E0,0E0,0E0,0E0,0E0,0E0,0E0,0E0,0E0,0E0,0E0,0E0,0E0,0E0,0E0,0E0,0E0,0E0,0E0,0E0,0E0,0E0,0E0,0E0,0E0,0E0,0E0,0E0,0E0,0E0,0E0,0E0,0E0,0E0,0E0,0E0,0E0,0E0,0E0,0E0,0E0,0E0,0E0,0E0,0E0,0E0,0E0,0E0,0E0],"parents":[2147483647,0,0,1,1,2,2,3,3,4,4,5,5,6,6,7,7,8,8,9,9,10,10,11,11,12,12,13,13,14,14,15,15,16,16,17,17,18,18,19,19,20,20,21,21,22,22,23,23,24,24,25,25,26,26,27,27,28,28,29,29,30,30,31,31,32,32,33,33,34,34,35,35,36,36,37,37,38,38,39,39,40,40,41,41,42,42,43,43,44,44,45,45,46,46,47,47,48,48,49,49,50,50,51,51,52,52,53,53,54,54,55,55,56,56,57,57,58,58,59,59,60,60,61,61,62,62],"right_children":[2,4,6,8,10,12,14,16,18,20,22,24,26,28,30,32,34,36,38,40,42,44,46,48,50,52,54,56,58,60,62,64,66,68,70,72,74,76,78,80,82,84,86,88,90,92,94,96,98,100,102,104,106,108,110,112,114,116,118,120,122,124,126,-1,-1,-1,-1,-1,-1,-1,-1,-1,-1,-1,-1,-1,-1,-1,-1,-1,-1,-1,-1,-1,-1,-1,-1,-1,-1,-1,-1,-1,-1,-1,-1,-1,-1,-1,-1,-1,-1,-1,-1,-1,-1,-1,-1,-1,-1,-1,-1,-1,-1,-1,-1,-1,-1,-1,-1,-1,-1,-1,-1,-1,-1,-1,-1],"split_conditions":[9.3E1,1E0,1.76E3,1.967E3,1E0,1.968E3,1E0,1.141E3,6.5E1,2.967E3,2.008E3,3.1E1,1.5E1,1E0,1.1E1,1E0,7.2E1,1.046E3,1.876E3,2.905E3,3.086E3,2.2E1,2.159E3,5.25E2,1.0772E4,1.02E2,4.8E1,2.5E1,8.9084E4,1.01E2,1.08E2,1.951E3,3.8E1,4.6E1,2.1308E4,1.02E2,2.2E1,1E0,1.5E1,1.597E4,1.997E3,3.1E1,1.8E7,1E0,3.543E3,1.7E1,8.1E1,1.15E2,1.965E3,3.7E1,1E0,2.01E3,1E0,3.1E1,3.56E2,2.9464E4,6.4E1,9.5E6,1.988E3,1E0,1.979E3,1E0,3.63792E5,1.8203784E-2,-3.2799423E-2,-1.3202968E-1,1.5451025E-2,2.4397406E-1,-5.9106514E-2,7.212449E-2,2.0491756E-1,1.9091605E-1,1.130073E-2,3.669244E-1,2.1973115E-1,-1.0963801E-1,9.481321E-2,-3.718966E-2,1.1170346E-1,-1.9817409E-1,3.0570185E-2,-6.450835E-2,-6.166869E-1,-1.9884947E-1,4.288985E-2,-3.0614559E-2,-2.4836428E-1,4.292107E-1,1.7162788E-1,2.836032E-2,2.0633684E-1,-1.4834924E-1,-2.0797564E-2,1.6282767E-1,1.2492371E-2,-1.8357888E-2,9.554316E-2,6.33339E-2,-1.3743998E-2,-9.279785E-2,7.376426E-2,2.7020255E-1,1.6089035E-2,2.9268771E-2,2.5107673E-1,-7.503296E-2,1.2613422E-1,-1.6100572E-2,1.022832E-1,-1.0927684E-1,1.3416042E-2,3.8484924E-2,1.006196E-1,1.3617337E-1,2.3219727E-1,-9.590227E-3,-1.1509936E-1,2.0974301E-1,5.2576154E-2,3.4825665E-1,2.5204683E-2,-1.3545571E-1,1.9061023E-1,-6.848332E-2,1.9392295E-1,3.688575E-3,1.0183796E-1],"split_indices":[1,22,7,0,10,0,8,7,1,5,0,3,3,18,3,9,1,7,7,5,7,3,5,7,6,7,3,3,7,1,1,0,4,1,7,7,1,13,3,7,0,3,2,16,5,3,1,1,0,4,9,0,13,3,7,7,3,2,0,22,0,10,7,0,0,0,0,0,0,0,0,0,0,0,0,0,0,0,0,0,0,0,0,0,0,0,0,0,0,0,0,0,0,0,0,0,0,0,0,0,0,0,0,0,0,0,0,0,0,0,0,0,0,0,0,0,0,0,0,0,0,0,0,0,0,0,0],"split_type":[0,0,0,0,0,0,0,0,0,0,0,0,0,0,0,0,0,0,0,0,0,0,0,0,0,0,0,0,0,0,0,0,0,0,0,0,0,0,0,0,0,0,0,0,0,0,0,0,0,0,0,0,0,0,0,0,0,0,0,0,0,0,0,0,0,0,0,0,0,0,0,0,0,0,0,0,0,0,0,0,0,0,0,0,0,0,0,0,0,0,0,0,0,0,0,0,0,0,0,0,0,0,0,0,0,0,0,0,0,0,0,0,0,0,0,0,0,0,0,0,0,0,0,0,0,0,0],"sum_hessian":[2.0577E4,7.308E3,1.3269E4,6.465E3,8.43E2,3.787E3,9.482E3,1.955E3,4.51E3,8.13E2,3E1,7.82E2,3.005E3,7.425E3,2.057E3,1.272E3,6.83E2,2.41E2,4.269E3,2.28E2,5.85E2,2E1,1E1,7.6E2,2.2E1,1.871E3,1.134E3,6.38E3,1.045E3,6E1,1.997E3,1.125E3,1.47E2,8.6E1,5.97E2,1.93E2,4.8E1,2.182E3,2.087E3,1.67E2,6.1E1,3.53E2,2.32E2,1.3E1,7E0,3E0,7E0,2.52E2,5.08E2,5E0,1.7E1,1.15E2,1.756E3,7.38E2,3.96E2,5.821E3,5.59E2,8.83E2,1.62E2,1.5E1,4.5E1,8.62E2,1.135E3,6.72E2,4.53E2,1.03E2,4.4E1,6E0,8E1,5.71E2,2.6E1,9.9E1,9.4E1,1.6E1,3.2E1,2.064E3,1.18E2,1.917E3,1.7E2,1.43E2,2.4E1,3E0,5.8E1,3.17E2,3.6E1,2.04E2,2.8E1,9E0,4E0,2E0,5E0,2E0,1E0,5E0,2E0,2.18E2,3.4E1,4.39E2,6.9E1,2E0,3E0,1.6E1,1E0,7.2E1,4.3E1,1.694E3,6.2E1,4.07E2,3.31E2,1.88E2,2.08E2,3.78E3,2.041E3,4.49E2,1.1E2,7.45E2,1.38E2,2E1,1.42E2,1.4E1,1E0,1E0,4.4E1,8.44E2,1.8E1,9.76E2,1.59E2],"tree_param":{"num_deleted":"0","num_feature":"27","num_nodes":"127","size_leaf_vector":"1"}},{"base_weights":[3.892892E-4,-9.0076E-2,1.0016361E-1,-1.0513922E-1,5.5887103E-1,5.0790004E-2,2.2526428E-1,-1.2205285E-1,3.7528384E-1,-4.4602033E-1,5.733478E-1,2.3707924E-2,2.2959995E-1,3.3996633E-1,1.15583874E-1,-8.247519E-3,-2.1211144E-1,2.6998267E-1,6.050999E-1,7.306917E-1,4.2974862E-1,1.3443166E-1,-2.126629E-2,4.4677678E-1,1.3039728E-1,4.2810342E-1,2.085115E-1,3.520981E-2,3.9665374E-1,-9.259235E-2,1.6832618E-1,-2.9170677E-1,4.343346E-2,-3.2316376E-2,2.9097018E-1,4.9223226E-1,8.037437E-1,4.305699E-1,8.5661286E-1,-4.531903E-2,7.470414E-1,-1.0188982E-1,1.9480585E-1,2.5185037E-2,-1.8865588E-1,3.480958E-1,7.339958E-1,2.804812E-1,-1.4768329E-3,4.6481127E-1,2.7862933E-1,5.083661E-2,3.3521405E-1,-5.0198365E-2,2.0593047E-1,4.6328154E-1,1.281091E-1,-9.865335E-3,-7.196664E-2,6.767918E-2,-2.3867136E-2,-1.1083642E-1,-6.3038943E-3,5.72172E-2,-1.51777845E-2,3.9589904E-2,-2.5288734E-1,-7.808177E-2,9.202698E-2,2.4823669E-1,1.2006678E-1,7.5045854E-2,2.528783E-1,3.333755E-3,1.7744167E-1,2.919024E-1,1.6334471E-1,1.3893291E-1,-1.0291856E-1,3.1311318E-1,1.7359065E-1,-3.7601285E-2,1.9539227E-1,-3.16219E-2,6.537805E-2,-3.2539698E-3,8.736687E-2,3.028678E-1,-6.313489E-2,1.2685408E-1,-1.5054317E-1,3.5697868E-1,1.6894388E-1,7.156958E-2,2.2420046E-1,5.831339E-3,-1.8806404E-1,1.436298E-1,2.4612142E-2,-8.90138E-3,1.0053155E-1,3.7052136E-2,-5.3736556E-2,2.9345065E-1,9.49925E-2,7.5190724E-3,-7.519414E-2,8.76363E-2,-2.6685959E-2,1.2145353E-1,2.0407547E-1,6.276822E-2,-2.0727162E-1],"categories":[],"categories_nodes":[],"categories_segments":[],"categories_sizes":[],"default_left":[0,0,0,0,0,0,0,0,0,0,0,0,0,0,0,0,0,0,0,0,0,0,0,0,0,0,0,0,0,0,0,0,0,0,0,0,0,0,0,0,0,0,0,0,0,0,0,0,0,0,0,0,0,0,0,0,0,0,0,0,0,0,0,0,0,0,0,0,0,0,0,0,0,0,0,0,0,0,0,0,0,0,0,0,0,0,0,0,0,0,0,0,0,0,0,0,0,0,0,0,0,0,0,0,0,0,0,0,0,0,0,0,0],"id":5,"left_children":[1,3,5,7,9,11,13,15,17,-1,19,21,23,25,27,29,31,33,35,37,39,41,43,45,47,49,51,53,55,57,59,61,63,65,67,69,71,73,75,77,79,81,83,85,87,89,91,93,95,97,99,101,103,105,107,109,111,-1,-1,-1,-1,-1,-1,-1,-1,-1,-1,-1,-1,-1,-1,-1,-1,-1,-1,-1,-1,-1,-1,-1,-1,-1,-1,-1,-1,-1,-1,-1,-1,-1,-1,-1,-1,-1,-1,-1,-1,-1,-1,-1,-1,-1,-1,-1,-1,-1,-1,-1,-1,-1,-1,-1,-1],"loss_changes":[1.8574835E2,1.0556286E2,6.0433456E1,8.576374E1,8.107811E0,3.397954E1,3.479631E1,1.0444733E2,8.524399E0,0E0,5.199028E0,3.0359188E1,1.9827335E1,1.5586655E1,3.1997099E1,6.707912E1,1.1572797E2,1.582838E0,2.115467E0,3.9772148E0,1.9629477E1,2.5145298E1,3.371918E1,7.9356384E0,1.2568451E1,4.3093567E0,1.0870865E1,1.6093117E1,5.5767975E0,2.6798544E1,2.0688122E1,9.128931E1,1.8733696E1,2.3752065E0,2.0987377E0,1.9512749E0,6.351204E-1,2.4231272E0,2.3766518E0,8.182068E0,3.2930183E0,6.421868E0,9.761463E0,3.2546852E1,2.4811459E1,1.3998507E1,5.016304E0,5.633589E0,4.4463305E0,3.4219818E0,2.8306103E0,4.0996547E0,3.2965126E0,1.1109698E1,9.379139E0,2.9196968E0,4.3965263E0,0E0,0E0,0E0,0E0,0E0,0E0,0E0,0E0,0E0,0E0,0E0,0E0,0E0,0E0,0E0,0E0,0E0,0E0,0E0,0E0,0E0,0E0,0E0,0E0,0E0,0E0,0E0,0E0,0E0,0E0,0E0,0E0,0E0,0E0,0E0,0E0,0E0,0E0,0E0,0E0,0E0,0E0,0E0,0E0,0E0,0E0,0E0,0E0,0E0,0E0,0E0,0E0,0E0,0E0,0E0,0E0],"parents":[2147483647,0,0,1,1,2,2,3,3,4,4,5,5,6,6,7,7,8,8,10,10,11,11,12,12,13,13,14,14,15,15,16,16,17,17,18,18,19,19,20,20,21,21,22,22,23,23,24,24,25,25,26,26,27,27,28,28,29,29,30,30,31,31,32,32,33,33,34,34,35,35,36,36,37,37,38,38,39,39,40,40,41,41,42,42,43,43,44,44,45,45,46,46,47,47,48,48,49,49,50,50,51,51,52,52,53,53,54,54,55,55,56,56],"right_children":[2,4,6,8,10,12,14,16,18,-1,20,22,24,26,28,30,32,34,36,38,40,42,44,46,48,50,52,54,56,58,60,62,64,66,68,70,72,74,76,78,80,82,84,86,88,90,92,94,96,98,100,102,104,106,108,110,112,-1,-1,-1,-1,-1,-1,-1,-1,-1,-1,-1,-1,-1,-1,-1,-1,-1,-1,-1,-1,-1,-1,-1,-1,-1,-1,-1,-1,-1,-1,-1,-1,-1,-1,-1,-1,-1,-1,-1,-1,-1,-1,-1,-1,-1,-1,-1,-1,-1,-1,-1,-1,-1,-1,-1,-1],"split_conditions":[1E0,1E0,1.4089E4,1E0,3.33E2,3.1E1,8.5E6,1.992E3,2.29E3,-4.4602033E-1,1.2E5,1.969E3,2.007E3,2.01E3,1.83893E5,4.033E3,4.8706E4,1.837E3,1.02E2,5.043E3,4.1486E4,3.2E2,1E0,6.4E1,4.7E1,1E0,2.8327E4,1.23E2,1E0,1.977E3,1E0,1.5E1,3E7,1.01E2,3.9E1,1.424E3,2.759E3,3.68E2,9.9E1,1E0,6.5E7,1.13E2,7.5E1,1E0,5.6E1,5.8E1,6.6E1,1E0,7.834998E6,1E0,3.6E1,1.8014E4,1.1E1,3.2E7,5.2E7,6.45076E5,1E0,-9.865335E-3,-7.196664E-2,6.767918E-2,-2.3867136E-2,-1.1083642E-1,-6.3038943E-3,5.72172E-2,-1.51777845E-2,3.9589904E-2,-2.5288734E-1,-7.808177E-2,9.202698E-2,2.4823669E-1,1.2006678E-1,7.5045854E-2,2.528783E-1,3.333755E-3,1.7744167E-1,2.919024E-1,1.6334471E-1,1.3893291E-1,-1.0291856E-1,3.1311318E-1,1.7359065E-1,-3.7601285E-2,1.9539227E-1,-3.16219E-2,6.537805E-2,-3.2539698E-3,8.736687E-2,3.028678E-1,-6.313489E-2,1.2685408E-1,-1.5054317E-1,3.5697868E-1,1.6894388E-1,7.156958E-2,2.2420046E-1,5.831339E-3,-1.8806404E-1,1.436298E-1,2.4612142E-2,-8.90138E-3,1.0053155E-1,3.7052136E-2,-5.3736556E-2,2.9345065E-1,9.49925E-2,7.5190724E-3,-7.519414E-2,8.76363E-2,-2.6685959E-2,1.2145353E-1,2.0407547E-1,6.276822E-2,-2.0727162E-1],"split_indices":[14,10,7,13,5,3,2,0,7,0,2,0,0,0,7,7,7,6,1,5,7,7,24,3,3,24,7,1,21,0,22,3,2,1,1,5,7,7,1,11,2,1,1,23,7,3,3,10,2,15,4,6,3,2,2,7,9,0,0,0,0,0,0,0,0,0,0,0,0,0,0,0,0,0,0,0,0,0,0,0,0,0,0,0,0,0,0,0,0,0,0,0,0,0,0,0,0,0,0,0,0,0,0,0,0,0,0,0,0,0,0,0,0],"split_type":[0,0,0,0,0,0,0,0,0,0,0,0,0,0,0,0,0,0,0,0,0,0,0,0,0,0,0,0,0,0,0,0,0,0,0,0,0,0,0,0,0,0,0,0,0,0,0,0,0,0,0,0,0,0,0,0,0,0,0,0,0,0,0,0,0,0,0,0,0,0,0,0,0,0,0,0,0,0,0,0,0,0,0,0,0,0,0,0,0,0,0,0,0,0,0,0,0,0,0,0,0,0,0,0,0,0,0,0,0,0,0,0,0],"sum_hessian":[2.0577E4,1.0792E4,9.785E3,1.0548E4,2.44E2,7.017E3,2.768E3,1.019E4,3.58E2,1E0,2.43E2,6.095E3,9.22E2,1.352E3,1.416E3,4.502E3,5.688E3,2.47E2,1.11E2,1.14E2,1.29E2,1.76E3,4.335E3,2.88E2,6.34E2,8.08E2,5.44E2,1.102E3,3.14E2,3.047E3,1.455E3,4.337E3,1.351E3,1.6E1,2.31E2,7.3E1,3.8E1,3.5E1,7.9E1,5.2E1,7.7E1,3.58E2,1.402E3,3.394E3,9.41E2,2.16E2,7.2E1,2.96E2,3.38E2,6.47E2,1.61E2,2.43E2,3.01E2,7.35E2,3.67E2,2.51E2,6.3E1,2.169E3,8.78E2,1.182E3,2.73E2,3.369E3,9.68E2,5.26E2,8.25E2,1.4E1,2E0,6E0,2.25E2,1.4E1,5.9E1,3E0,3.5E1,1E1,2.5E1,5.6E1,2.3E1,1.9E1,3.3E1,2.6E1,5.1E1,3.48E2,1E1,1E2,1.302E3,2.99E3,4.04E2,1.6E1,9.25E2,1.99E2,1.7E1,1.8E1,5.4E1,2.73E2,2.3E1,3.28E2,1E1,6.24E2,2.3E1,2.5E1,1.36E2,1.85E2,5.8E1,7E0,2.94E2,5.35E2,2E2,2.84E2,8.3E1,2E2,5.1E1,5.8E1,5E0],"tree_param":{"num_deleted":"0","num_feature":"27","num_nodes":"113","size_leaf_vector":"1"}},{"base_weights":[4.1987564E-4,2.3517631E-2,-2.2731568E-1,-8.227635E-2,7.590058E-2,-2.8959614E-1,8.599455E-2,1.6827926E-1,-1.1791609E-1,6.857736E-1,6.440987E-2,-3.128756E-1,3.3831173E-1,4.5417777E-1,-4.768383E-2,9.209961E-2,5.2972955E-1,-2.2863095E-1,-4.1163996E-2,-3.524772E-1,7.0715487E-1,1.4531657E-1,-1.9139057E-3,-2.0364869E-1,-4.2907873E-1,4.1861022E-1,-2.4908882E-1,2.7531907E-1,5.2529895E-1,-1.6727795E-1,2.1509346E-1,4.3048045E-1,5.296307E-2,-1.675616E-1,6.256975E-1,-3.852203E-2,-2.7172062E-1,-7.046249E-2,2.2654684E-1,7.4051774E-1,3.2148704E-1,1.1957342E-1,3.3558714E-1,-3.6049116E-2,2.4160546E-1,-3.5126334E-1,-1.0407772E-1,4.1759032E-1,-4.6181804E-1,6.110281E-1,1.3269801E-1,1.2279108E-1,4.7214893E-1,6.3012743E-1,3.5752702E-1,4.308226E-1,-2.1432446E-1,1.3045236E-1,5.957099E-1,1.8973225E-1,1.52094485E-2,3.4338918E-2,-2.8419582E-2,1.4158423E-1,-1.677867E-1,2.2644071E-1,8.406492E-3,-1.6807665E-1,-9.838699E-4,-1.16111465E-1,-4.8071973E-2,1.2294678E-2,-4.583855E-2,1.081821E-1,-3.7466593E-2,2.2854178E-1,7.157227E-2,3.142077E-1,-1.9323688E-2,4.2822205E-2,-2.9732922E-2,7.8862995E-2,1.2912424E-1,-3.4767944E-2,2.2972088E-2,8.410104E-2,-1.2102784E-2,-8.679329E-2,-2.0526019E-1,-2.3509915E-1,-2.4477988E-2,2.0029259E-1,-8.72982E-2,-1.195889E-1,-3.1896952E-1,1.9794135E-1,-2.4123527E-2,-2.3191394E-2,1.4038748E-1,7.576241E-2,-1.8557867E-3,-3.9364174E-2,1.6368198E-1,1.9579966E-1,-2.0424772E-2,1.268995E-1,-7.907853E-2,-2.2313787E-2,1.6179028E-1,-2.7273688E-2,-1.20311834E-1,1.4572093E-2,1.2055842E-1,2.358297E-1,7.2771885E-2],"categories":[],"categories_nodes":[],"categories_segments":[],"categories_sizes":[],"default_left":[0,0,0,0,0,0,0,0,0,0,0,0,0,0,0,0,0,0,0,0,0,0,0,0,0,0,0,0,0,0,0,0,0,0,0,0,0,0,0,0,0,0,0,0,0,0,0,0,0,0,0,0,0,0,0,0,0,0,0,0,0,0,0,0,0,0,0,0,0,0,0,0,0,0,0,0,0,0,0,0,0,0,0,0,0,0,0,0,0,0,0,0,0,0,0,0,0,0,0,0,0,0,0,0,0,0,0,0,0,0,0,0,0,0,0],"id":6,"left_children":[1,3,5,7,9,11,13,15,17,19,21,23,25,27,29,31,33,35,37,-1,39,41,43,45,47,49,-1,51,53,55,57,59,61,63,65,67,69,71,73,75,77,79,81,83,85,87,89,91,93,95,97,99,101,103,105,107,109,111,113,-1,-1,-1,-1,-1,-1,-1,-1,-1,-1,-1,-1,-1,-1,-1,-1,-1,-1,-1,-1,-1,-1,-1,-1,-1,-1,-1,-1,-1,-1,-1,-1,-1,-1,-1,-1,-1,-1,-1,-1,-1,-1,-1,-1,-1,-1,-1,-1,-1,-1,-1,-1,-1,-1,-1,-1],"loss_changes":[1.0824933E2,1.0354925E2,3.7002228E1,5.5277054E1,8.753326E1,2.3215881E1,1.552537E1,2.1180817E1,4.6030563E1,1.0020988E1,6.5825455E1,1.9268692E1,5.6963053E0,9.2391014E-1,7.326956E0,8.42627E0,9.0718E0,1.8158806E1,2.5123089E1,0E0,2.7084732E0,2.7027122E1,5.605216E1,1.154557E1,2.064975E1,2.8897076E0,0E0,7.225981E-1,8.1236076E-1,4.5945024E0,2.274042E0,5.030199E0,5.21554E0,4.5226793E0,9.084068E0,7.5552893E0,2.3181076E1,2.6486885E1,1.4932899E1,2.0622025E0,5.669733E0,2.4681915E1,4.4237137E0,5.318906E1,9.064178E0,6.34058E0,7.1482673E0,5.1553946E0,2.6595871E1,1.1322851E0,1.6555027E0,2.6931912E-1,5.59129E-1,5.9520435E-1,1.1281416E0,6.9775414E-1,3.3969326E0,1.33606E0,6.833477E-1,0E0,0E0,0E0,0E0,0E0,0E0,0E0,0E0,0E0,0E0,0E0,0E0,0E0,0E0,0E0,0E0,0E0,0E0,0E0,0E0,0E0,0E0,0E0,0E0,0E0,0E0,0E0,0E0,0E0,0E0,0E0,0E0,0E0,0E0,0E0,0E0,0E0,0E0,0E0,0E0,0E0,0E0,0E0,0E0,0E0,0E0,0E0,0E0,0E0,0E0,0E0,0E0,0E0,0E0,0E0,0E0],"parents":[2147483647,0,0,1,1,2,2,3,3,4,4,5,5,6,6,7,7,8,8,9,9,10,10,11,11,12,12,13,13,14,14,15,15,16,16,17,17,18,18,20,20,21,21,22,22,23,23,24,24,25,25,27,27,28,28,29,29,30,30,31,31,32,32,33,33,34,34,35,35,36,36,37,37,38,38,39,39,40,40,41,41,42,42,43,43,44,44,45,45,46,46,47,47,48,48,49,49,50,50,51,51,52,52,53,53,54,54,55,55,56,56,57,57,58,58],"right_children":[2,4,6,8,10,12,14,16,18,20,22,24,26,28,30,32,34,36,38,-1,40,42,44,46,48,50,-1,52,54,56,58,60,62,64,66,68,70,72,74,76,78,80,82,84,86,88,90,92,94,96,98,100,102,104,106,108,110,112,114,-1,-1,-1,-1,-1,-1,-1,-1,-1,-1,-1,-1,-1,-1,-1,-1,-1,-1,-1,-1,-1,-1,-1,-1,-1,-1,-1,-1,-1,-1,-1,-1,-1,-1,-1,-1,-1,-1,-1,-1,-1,-1,-1,-1,-1,-1,-1,-1,-1,-1,-1,-1,-1,-1,-1,-1],"split_conditions":[1E0,1.195E3,1.04528E5,1.02E2,1.3E1,1E0,4E7,2.021E3,3.93E2,1.83E2,2E3,1.997E3,3E7,1.58471E5,5.06832E5,5.4E1,1.676E3,1.952E3,1E0,-3.524772E-1,1E0,5.2705E4,2.5E1,2.047E3,6.8E1,1.4569E4,-2.4908882E-1,5.588E3,1E0,7.03E2,1.48E2,1.2924E4,1E0,3.672E3,1E0,5.7E1,1E0,1.975E3,1E0,1.3456E4,4.86E3,1E0,1.22226E5,2.6116E4,1E0,1E0,5.06E2,5E2,5.2E1,1E0,1.597E4,1.22226E5,1.98E3,3.6E7,1E0,2.15741E5,1.2E8,1.8379E4,2.9E1,1.8973225E-1,1.52094485E-2,3.4338918E-2,-2.8419582E-2,1.4158423E-1,-1.677867E-1,2.2644071E-1,8.406492E-3,-1.6807665E-1,-9.838699E-4,-1.16111465E-1,-4.8071973E-2,1.2294678E-2,-4.583855E-2,1.081821E-1,-3.7466593E-2,2.2854178E-1,7.157227E-2,3.142077E-1,-1.9323688E-2,4.2822205E-2,-2.9732922E-2,7.8862995E-2,1.2912424E-1,-3.4767944E-2,2.2972088E-2,8.410104E-2,-1.2102784E-2,-8.679329E-2,-2.0526019E-1,-2.3509915E-1,-2.4477988E-2,2.0029259E-1,-8.72982E-2,-1.195889E-1,-3.1896952E-1,1.9794135E-1,-2.4123527E-2,-2.3191394E-2,1.4038748E-1,7.576241E-2,-1.8557867E-3,-3.9364174E-2,1.6368198E-1,1.9579966E-1,-2.0424772E-2,1.268995E-1,-7.907853E-2,-2.2313787E-2,1.6179028E-1,-2.7273688E-2,-1.20311834E-1,1.4572093E-2,1.2055842E-1,2.358297E-1,7.2771885E-2],"split_indices":[22,7,7,7,3,10,2,0,7,5,0,0,2,7,7,1,6,0,23,0,9,7,3,7,1,6,0,5,24,5,1,6,11,5,13,1,14,0,24,5,6,9,7,7,18,9,5,2,4,18,7,7,0,2,14,7,2,6,4,0,0,0,0,0,0,0,0,0,0,0,0,0,0,0,0,0,0,0,0,0,0,0,0,0,0,0,0,0,0,0,0,0,0,0,0,0,0,0,0,0,0,0,0,0,0,0,0,0,0,0,0,0,0,0,0],"split_type":[0,0,0,0,0,0,0,0,0,0,0,0,0,0,0,0,0,0,0,0,0,0,0,0,0,0,0,0,0,0,0,0,0,0,0,0,0,0,0,0,0,0,0,0,0,0,0,0,0,0,0,0,0,0,0,0,0,0,0,0,0,0,0,0,0,0,0,0,0,0,0,0,0,0,0,0,0,0,0,0,0,0,0,0,0,0,0,0,0,0,0,0,0,0,0,0,0,0,0,0,0,0,0,0,0,0,0,0,0,0,0,0,0,0,0],"sum_hessian":[2.0577E4,1.8683E4,1.894E3,6.187E3,1.2496E4,1.58E3,3.14E2,7.7E2,5.417E3,2.3E2,1.2266E4,1.524E3,5.6E1,8.3E1,2.31E2,6.37E2,1.33E2,2.217E3,3.2E3,2E0,2.28E2,5.525E3,6.741E3,7.87E2,7.37E2,5.3E1,3E0,2.5E1,5.8E1,1.59E2,7.2E1,6.5E1,5.72E2,1.6E1,1.17E2,4.1E2,1.807E3,2.885E3,3.15E2,2.09E2,1.9E1,4.868E3,6.57E2,5.913E3,8.28E2,3.16E2,4.71E2,2.7E1,7.1E2,3.1E1,2.2E1,1.5E1,1E1,3.4E1,2.4E1,1.1E1,1.48E2,6E1,1.2E1,4.2E1,2.3E1,4.04E2,1.68E2,6E0,1E1,9.6E1,2.1E1,2.5E1,3.85E2,8.87E2,9.2E2,1.226E3,1.659E3,2.28E2,8.7E1,2E2,9E0,6E0,1.3E1,4.402E3,4.66E2,3.74E2,2.83E2,3.46E3,2.453E3,7.28E2,1E2,2.68E2,4.8E1,1.4E1,4.57E2,2E1,7E0,6.44E2,6.6E1,2.9E1,2E0,1.4E1,8E0,7E0,8E0,1E0,9E0,3.3E1,1E0,2.2E1,2E0,2E0,9E0,9E1,5.8E1,4.7E1,1.3E1,7E0,5E0],"tree_param":{"num_deleted":"0","num_feature":"27","num_nodes":"115","size_leaf_vector":"1"}},{"base_weights":[3.2636305E-4,2.882551E-2,-1.2938444E-1,5.85737E-2,-1.04987726E-1,-2.389383E-1,-1.8572189E-2,-5.562501E-2,9.402893E-2,-2.6434582E-1,-6.8612084E-2,-5.753405E-1,-1.4838198E-1,1.3507958E-2,-3.170468E-1,9.744517E-2,-1.1165295E-1,6.944575E-2,2.2057812E-1,-3.1134382E-1,3.661614E-1,4.5712808E-1,-7.799912E-2,-3.6314848E-1,-1.1976755E0,7.1760744E-1,-1.7937993E-1,7.044617E-2,-1.13882974E-1,-4.3658042E-1,3.805225E-2,3.755637E-1,7.0206806E-2,-7.754101E-2,-3.0745807E-1,4.514024E-1,6.179859E-2,3.35391E-1,1.7324297E-1,-1.4845663E-1,-5.1588064E-1,1.1083083E0,-2.914274E-1,-1.3525542E-2,7.2655606E-1,-8.902879E-2,3.1080824E-1,-1.9287616E-1,-5.882126E-1,-2.8268394E-1,-1.3685943E0,7.900211E-1,2.2963113E-1,-3.7882727E-2,-3.0151543E-1,2.4722606E-2,1.8925019E-1,-2.772581E-1,-1.50983315E-2,-5.0926024E-1,3.4476924E-1,-4.4355802E-2,2.7432773E-1,-3.1789273E-1,1.3413016E-1,1.8771915E-2,2.4543828E-1,-2.7116392E-2,1.4082637E-1,-1.7109945E-2,-1.3052759E-1,1.5056619E-1,-2.2604443E-2,1.4928124E-2,9.561067E-2,1.2080277E-1,2.3723306E-2,6.055876E-3,8.342497E-2,-6.322857E-2,6.1540924E-2,-1.8716252E-1,-5.2666534E-2,4.0509772E-1,-4.1051425E-2,1.0667547E-2,-1.4424492E-1,-1.5115364E-1,6.9828466E-2,2.5789383E-1,6.134383E-2,3.4347918E-2,-3.3825606E-2,1.7225811E-1,5.9088293E-2,-1.9418528E-2,-1.7095612E-1,3.052759E-1,-1.8661384E-1,-2.248221E-1,-7.729626E-3,-5.0186986E-1,-2.542832E-1,-8.1289604E-2,2.4629904E-1,1.5572141E-1,-1.2773791E-1,-2.297906E-2,8.6688995E-2,-1.4569849E-1,-2.072359E-2,2.9404396E-2,-2.686888E-2,9.995746E-2,3.7543446E-2,1.0335292E-1,-1.0284163E-1,-1.3199562E-2,1.4263155E-1,2.6722416E-2,-1.7423469E-1,-1.1055548E-1,1.8704346E-1,1.8939532E-2,-1.3723038E-1],"categories":[],"categories_nodes":[],"categories_segments":[],"categories_sizes":[],"default_left":[0,0,0,0,0,0,0,0,0,0,0,0,0,0,0,0,0,0,0,0,0,0,0,0,0,0,0,0,0,0,0,0,0,0,0,0,0,0,0,0,0,0,0,0,0,0,0,0,0,0,0,0,0,0,0,0,0,0,0,0,0,0,0,0,0,0,0,0,0,0,0,0,0,0,0,0,0,0,0,0,0,0,0,0,0,0,0,0,0,0,0,0,0,0,0,0,0,0,0,0,0,0,0,0,0,0,0,0,0,0,0,0,0,0,0,0,0,0,0,0,0,0,0,0,0],"id":7,"left_children":[1,3,5,7,9,11,13,15,17,19,21,23,25,27,29,31,33,35,37,39,41,43,45,47,49,51,53,55,57,59,61,63,65,67,69,71,73,75,77,79,81,83,85,87,89,91,93,95,97,99,101,103,105,107,109,111,113,115,117,119,121,123,-1,-1,-1,-1,-1,-1,-1,-1,-1,-1,-1,-1,-1,-1,-1,-1,-1,-1,-1,-1,-1,-1,-1,-1,-1,-1,-1,-1,-1,-1,-1,-1,-1,-1,-1,-1,-1,-1,-1,-1,-1,-1,-1,-1,-1,-1,-1,-1,-1,-1,-1,-1,-1,-1,-1,-1,-1,-1,-1,-1,-1,-1,-1],"loss_changes":[7.607333E1,6.716854E1,4.4998215E1,5.5896828E1,1.7772095E1,5.6698303E1,1.7660786E1,2.8063652E1,3.275576E1,1.7004578E1,1.2373514E1,5.172661E1,3.9589245E1,1.2092208E1,7.614496E0,6.617341E0,1.5973068E1,2.5740143E1,9.251511E0,1.7614433E1,1.9844091E1,5.589346E0,1.0564308E1,1.1229919E1,1.5252045E1,1.6207314E0,2.4528786E1,6.2531495E0,8.307375E0,7.7852154E0,3.3626907E0,8.482032E0,4.516367E0,1.4384128E1,1.1321945E1,4.6383896E0,2.673558E1,8.573914E0,1.9490894E1,6.5863543E0,8.527489E0,5.91037E0,1.3795029E0,2.1701868E0,1.7697496E0,1.1552294E1,1.9259338E0,8.175613E0,7.5328636E0,2.0191576E0,1.1899231E1,1.6685085E0,1.7386659E0,8.360831E0,3.258184E1,6.9861703E0,2.9110756E0,8.024612E0,4.5857882E0,5.3154144E0,2.6153584E0,1.9381145E0,0E0,0E0,0E0,0E0,0E0,0E0,0E0,0E0,0E0,0E0,0E0,0E0,0E0,0E0,0E0,0E0,0E0,0E0,0E0,0E0,0E0,0E0,0E0,0E0,0E0,0E0,0E0,0E0,0E0,0E0,0E0,0E0,0E0,0E0,0E0,0E0,0E0,0E0,0E0,0E0,0E0,0E0,0E0,0E0,0E0,0E0,0E0,0E0,0E0,0E0,0E0,0E0,0E0,0E0,0E0,0E0,0E0,0E0,0E0,0E0,0E0,0E0,0E0],"parents":[2147483647,0,0,1,1,2,2,3,3,4,4,5,5,6,6,7,7,8,8,9,9,10,10,11,11,12,12,13,13,14,14,15,15,16,16,17,17,18,18,19,19,20,20,21,21,22,22,23,23,24,24,25,25,26,26,27,27,28,28,29,29,30,30,31,31,32,32,33,33,34,34,35,35,36,36,37,37,38,38,39,39,40,40,41,41,42,42,43,43,44,44,45,45,46,46,47,47,48,48,49,49,50,50,51,51,52,52,53,53,54,54,55,55,56,56,57,57,58,58,59,59,60,60,61,61],"right_children":[2,4,6,8,10,12,14,16,18,20,22,24,26,28,30,32,34,36,38,40,42,44,46,48,50,52,54,56,58,60,62,64,66,68,70,72,74,76,78,80,82,84,86,88,90,92,94,96,98,100,102,104,106,108,110,112,114,116,118,120,122,124,-1,-1,-1,-1,-1,-1,-1,-1,-1,-1,-1,-1,-1,-1,-1,-1,-1,-1,-1,-1,-1,-1,-1,-1,-1,-1,-1,-1,-1,-1,-1,-1,-1,-1,-1,-1,-1,-1,-1,-1,-1,-1,-1,-1,-1,-1,-1,-1,-1,-1,-1,-1,-1,-1,-1,-1,-1,-1,-1,-1,-1,-1,-1],"split_conditions":[1E0,1E0,6.412E3,5.9E2,7.92E2,3.078E3,1E0,1.33E2,1.5E1,2.023E3,1.2E1,2.905E3,1.1E1,1E0,2.15741E5,1.7E1,1E0,1.4E1,2.4E1,2.002E3,1.98E2,1.989E3,1.83893E5,1.997E3,2.001E3,1E0,1.99E3,9.3724E4,1.08E2,1E0,1.7E2,1.89E2,1.63E2,6.6E1,1.991E3,1E0,1E0,1E0,3.1E1,1E0,2.5E1,1.0198E4,9.707E3,7.667E3,1E0,1.966E3,1E2,1E0,7.4E1,6.763E3,1E0,1E0,2E3,3.1E1,1.5E1,2.012E3,3.1E7,1.985E3,3.2E1,1.131E3,3.543E3,1.0098E4,2.7432773E-1,-3.1789273E-1,1.3413016E-1,1.8771915E-2,2.4543828E-1,-2.7116392E-2,1.4082637E-1,-1.7109945E-2,-1.3052759E-1,1.5056619E-1,-2.2604443E-2,1.4928124E-2,9.561067E-2,1.2080277E-1,2.3723306E-2,6.055876E-3,8.342497E-2,-6.322857E-2,6.1540924E-2,-1.8716252E-1,-5.2666534E-2,4.0509772E-1,-4.1051425E-2,1.0667547E-2,-1.4424492E-1,-1.5115364E-1,6.9828466E-2,2.5789383E-1,6.134383E-2,3.4347918E-2,-3.3825606E-2,1.7225811E-1,5.9088293E-2,-1.9418528E-2,-1.7095612E-1,3.052759E-1,-1.8661384E-1,-2.248221E-1,-7.729626E-3,-5.0186986E-1,-2.542832E-1,-8.1289604E-2,2.4629904E-1,1.5572141E-1,-1.2773791E-1,-2.297906E-2,8.6688995E-2,-1.4569849E-1,-2.072359E-2,2.9404396E-2,-2.686888E-2,9.995746E-2,3.7543446E-2,1.0335292E-1,-1.0284163E-1,-1.3199562E-2,1.4263155E-1,2.6722416E-2,-1.7423469E-1,-1.1055548E-1,1.8704346E-1,1.8939532E-2,-1.3723038E-1],"split_indices":[8,18,7,7,7,5,16,7,3,0,3,5,3,9,7,7,24,3,3,0,7,0,7,0,0,16,0,7,1,10,1,6,1,3,0,9,23,21,3,23,3,5,6,6,14,0,1,9,7,6,18,3,0,3,3,0,2,0,3,5,5,5,0,0,0,0,0,0,0,0,0,0,0,0,0,0,0,0,0,0,0,0,0,0,0,0,0,0,0,0,0,0,0,0,0,0,0,0,0,0,0,0,0,0,0,0,0,0,0,0,0,0,0,0,0,0,0,0,0,0,0,0,0,0,0],"split_type":[0,0,0,0,0,0,0,0,0,0,0,0,0,0,0,0,0,0,0,0,0,0,0,0,0,0,0,0,0,0,0,0,0,0,0,0,0,0,0,0,0,0,0,0,0,0,0,0,0,0,0,0,0,0,0,0,0,0,0,0,0,0,0,0,0,0,0,0,0,0,0,0,0,0,0,0,0,0,0,0,0,0,0,0,0,0,0,0,0,0,0,0,0,0,0,0,0,0,0,0,0,0,0,0,0,0,0,0,0,0,0,0,0,0,0,0,0,0,0,0,0,0,0,0,0],"sum_hessian":[2.0577E4,1.6871E4,3.706E3,1.3803E4,3.068E3,1.863E3,1.843E3,3.27E3,1.0533E4,5.69E2,2.499E3,3.94E2,1.469E3,1.665E3,1.78E2,8.76E2,2.394E3,8.821E3,1.712E3,5.3E2,3.9E1,4.3E1,2.456E3,2.95E2,9.9E1,5E1,1.419E3,1.151E3,5.14E2,1.33E2,4.5E1,7.7E1,7.99E2,2.04E3,3.54E2,1.72E2,8.649E3,4.98E2,1.214E3,2.96E2,2.34E2,1.8E1,2.1E1,1.6E1,2.7E1,2.389E3,6.7E1,1.69E2,1.26E2,1.6E1,8.3E1,4.3E1,7E0,6.58E2,7.61E2,8.32E2,3.19E2,1.93E2,3.21E2,1.22E2,1.1E1,4.2E1,3E0,3E0,7.4E1,7.92E2,7E0,1.994E3,4.6E1,1.2E2,2.34E2,1.57E2,1.5E1,8.263E3,3.86E2,3.94E2,1.04E2,4.94E2,7.2E2,2.52E2,4.4E1,1.77E2,5.7E1,1.5E1,3E0,8E0,1.3E1,5E0,1.1E1,2.1E1,6E0,2.49E2,2.14E3,1.9E1,4.8E1,1.27E2,4.2E1,2E0,1.24E2,5E0,1.1E1,5.1E1,3.2E1,1E0,4.2E1,5E0,2E0,5.89E2,6.9E1,4.24E2,3.37E2,5.07E2,3.25E2,9.7E1,2.22E2,1.8E1,1.75E2,3.04E2,1.7E1,1.3E1,1.09E2,3E0,8E0,3.4E1,8E0],"tree_param":{"num_deleted":"0","num_feature":"27","num_nodes":"125","size_leaf_vector":"1"}},{"base_weights":[2.4596535E-4,-8.583713E-2,2.9532705E-2,3.3552387E-1,-1.0206814E-1,3.370441E-1,2.2839926E-2,2.499521E-1,8.339155E-1,1.1163538E-2,-1.5367435E-1,3.5711226E-1,-3.3482873E-1,4.5534357E-2,-7.225574E-2,-1.5112497E-1,3.388823E-1,5.7100356E-1,9.954117E-1,-1.029923E-1,6.2460452E-2,-1.817336E-1,9.349153E-2,2.9865938E-1,5.6372255E-1,4.26925E-1,-9.138187E-1,3.4305453E-2,2.0543262E-1,-1.2316993E-1,7.898168E-2,-2.7750853E-1,7.713411E-1,-7.038034E-1,3.6747825E-1,8.309946E-1,1.2918162E-1,4.453741E-1,1.141643E0,-2.3587087E-1,7.765553E-2,7.4868515E-2,-2.3365067E-1,-2.5420856E-1,-3.8483948E-2,3.8758004E-1,-2.182387E-1,2.336322E-1,4.5617613E-1,8.747902E-1,4.5330986E-1,1.6039447E-1,5.3068023E-2,-2.435805E-1,-3.564128E-1,5.281205E-2,-8.401921E-2,1.6105235E-1,4.3365425E-1,-1.5941082E-1,9.281162E-2,1.271234E-1,-1.5731677E-1,-1.1832591E-1,2.4846736E-1,-5.2114394E-2,3.432794E-1,-3.0342662E-1,3.285785E-2,1.1437992E-1,-2.1995166E-1,2.6997387E-1,5.2285053E-2,5.84925E-2,-2.9967787E-2,1.8375292E-1,-3.3475257E-2,6.9229394E-2,3.610415E-1,1.9668123E-2,-1.0667225E-1,1.03327475E-1,5.375795E-3,2.1010714E-2,1.8701881E-1,-1.7692475E-2,-3.990304E-1,-8.74409E-2,3.238283E-2,2.1415332E-2,-6.848596E-2,6.650754E-2,2.4280147E-1,-5.4075044E-2,-2.6586777E-1,-2.7837697E-1,7.559989E-2,1.8025422E-1,9.092575E-2,5.0205234E-2,2.8738764E-1,1.6999969E-1,8.781818E-2,-9.08603E-2,-1.875093E-2,7.841149E-3,3.7777945E-2,-1.0037503E-1,-1.3925569E-2,6.0040783E-2,7.4248393E-3,1.1560158E-1,3.1051445E-1,9.259789E-3,-6.114245E-2,7.013474E-2,-7.894699E-3,1.8533448E-2,1.1135248E-1,-9.307703E-2,4.139842E-2],"categories":[],"categories_nodes":[],"categories_segments":[],"categories_sizes":[],"default_left":[0,0,0,0,0,0,0,0,0,0,0,0,0,0,0,0,0,0,0,0,0,0,0,0,0,0,0,0,0,0,0,0,0,0,0,0,0,0,0,0,0,0,0,0,0,0,0,0,0,0,0,0,0,0,0,0,0,0,0,0,0,0,0,0,0,0,0,0,0,0,0,0,0,0,0,0,0,0,0,0,0,0,0,0,0,0,0,0,0,0,0,0,0,0,0,0,0,0,0,0,0,0,0,0,0,0,0,0,0,0,0,0,0,0,0,0,0,0,0,0,0],"id":8,"left_children":[1,3,5,7,9,11,13,15,17,19,21,23,25,27,29,31,33,35,37,39,41,43,45,47,49,51,53,55,57,59,61,63,65,67,69,71,73,75,77,79,81,83,85,87,89,91,93,95,97,99,101,-1,-1,103,-1,105,107,109,111,113,115,117,119,-1,-1,-1,-1,-1,-1,-1,-1,-1,-1,-1,-1,-1,-1,-1,-1,-1,-1,-1,-1,-1,-1,-1,-1,-1,-1,-1,-1,-1,-1,-1,-1,-1,-1,-1,-1,-1,-1,-1,-1,-1,-1,-1,-1,-1,-1,-1,-1,-1,-1,-1,-1,-1,-1,-1,-1,-1,-1],"loss_changes":[5.1881596E1,3.5761776E1,3.1594505E1,8.065325E0,2.940015E1,4.528599E0,3.2438007E1,6.0077467E0,6.2047577E-1,9.23524E0,2.3985352E1,3.6721153E0,4.80061E0,2.1779333E1,2.230931E1,3.828174E0,4.3435087E0,1.3859577E0,7.784662E-1,1.1756384E1,4.014986E0,3.221598E1,3.2446304E1,2.4541435E0,1.9733086E0,4.009527E-2,8.1338835E-1,2.4834433E1,7.9924774E0,1.6976688E1,8.324345E0,3.9462993E0,1.6085093E0,1.1115583E0,2.3131084E0,2.05235E-1,1.09905966E-1,5.3378433E-1,3.980999E-1,1.01985235E1,3.308473E0,2.7265563E0,8.348585E0,2.784291E1,2.1787144E1,1.2554157E1,4.2049065E0,4.052761E0,1.412529E0,8.399086E-1,7.9887867E-1,0E0,0E0,1.3276532E-2,0E0,1.912154E1,1.4436858E1,3.5536194E0,3.3494778E0,1.5685383E1,5.245714E0,9.657268E0,5.643265E0,0E0,0E0,0E0,0E0,0E0,0E0,0E0,0E0,0E0,0E0,0E0,0E0,0E0,0E0,0E0,0E0,0E0,0E0,0E0,0E0,0E0,0E0,0E0,0E0,0E0,0E0,0E0,0E0,0E0,0E0,0E0,0E0,0E0,0E0,0E0,0E0,0E0,0E0,0E0,0E0,0E0,0E0,0E0,0E0,0E0,0E0,0E0,0E0,0E0,0E0,0E0,0E0,0E0,0E0,0E0,0E0,0E0,0E0],"parents":[2147483647,0,0,1,1,2,2,3,3,4,4,5,5,6,6,7,7,8,8,9,9,10,10,11,11,12,12,13,13,14,14,15,15,16,16,17,17,18,18,19,19,20,20,21,21,22,22,23,23,24,24,25,25,26,26,27,27,28,28,29,29,30,30,31,31,32,32,33,33,34,34,35,35,36,36,37,37,38,38,39,39,40,40,41,41,42,42,43,43,44,44,45,45,46,46,47,47,48,48,49,49,50,50,53,53,55,55,56,56,57,57,58,58,59,59,60,60,61,61,62,62],"right_children":[2,4,6,8,10,12,14,16,18,20,22,24,26,28,30,32,34,36,38,40,42,44,46,48,50,52,54,56,58,60,62,64,66,68,70,72,74,76,78,80,82,84,86,88,90,92,94,96,98,100,102,-1,-1,104,-1,106,108,110,112,114,116,118,120,-1,-1,-1,-1,-1,-1,-1,-1,-1,-1,-1,-1,-1,-1,-1,-1,-1,-1,-1,-1,-1,-1,-1,-1,-1,-1,-1,-1,-1,-1,-1,-1,-1,-1,-1,-1,-1,-1,-1,-1,-1,-1,-1,-1,-1,-1,-1,-1,-1,-1,-1,-1,-1,-1,-1,-1,-1,-1],"split_conditions":[9E1,4.2E1,1.3E1,1.413E3,1.96E3,1E0,1E0,3E0,9.618E3,7.2E1,1E0,1E0,1.1E1,1.30005E5,1E0,1.3348E4,3.85E2,7.266E3,8E0,3.8E1,1E0,4.033E3,8.5E1,1.555E4,9.5E1,7.58E3,9.5E1,1.15E7,5.06832E5,1.83893E5,2.019E3,6.4E2,3.352E3,2.017E3,1E0,5E2,2.019E3,2.022E3,3.33E2,3E1,1.23E2,3.9919E4,1.954E3,3.1E1,4.5E6,2.021E3,1E0,1.83E2,2.005E3,1.969E3,1E0,1.6039447E-1,5.3068023E-2,1.958E3,-3.564128E-1,8.669E3,9.371E3,1E0,1E0,1.981E3,1.1E8,1.5E1,5.115E6,-1.1832591E-1,2.4846736E-1,-5.2114394E-2,3.432794E-1,-3.0342662E-1,3.285785E-2,1.1437992E-1,-2.1995166E-1,2.6997387E-1,5.2285053E-2,5.84925E-2,-2.9967787E-2,1.8375292E-1,-3.3475257E-2,6.9229394E-2,3.610415E-1,1.9668123E-2,-1.0667225E-1,1.03327475E-1,5.375795E-3,2.1010714E-2,1.8701881E-1,-1.7692475E-2,-3.990304E-1,-8.74409E-2,3.238283E-2,2.1415332E-2,-6.848596E-2,6.650754E-2,2.4280147E-1,-5.4075044E-2,-2.6586777E-1,-2.7837697E-1,7.559989E-2,1.8025422E-1,9.092575E-2,5.0205234E-2,2.8738764E-1,1.6999969E-1,8.781818E-2,-9.08603E-2,-1.875093E-2,7.841149E-3,3.7777945E-2,-1.0037503E-1,-1.3925569E-2,6.0040783E-2,7.4248393E-3,1.1560158E-1,3.1051445E-1,9.259789E-3,-6.114245E-2,7.013474E-2,-7.894699E-3,1.8533448E-2,1.1135248E-1,-9.307703E-2,4.139842E-2],"split_indices":[1,1,3,7,0,15,8,1,6,1,23,12,3,7,12,5,5,5,1,4,19,7,1,6,1,6,1,2,7,7,0,7,6,0,20,2,0,0,5,4,7,7,0,3,2,0,9,5,0,0,14,0,0,0,0,7,7,21,10,0,2,3,2,0,0,0,0,0,0,0,0,0,0,0,0,0,0,0,0,0,0,0,0,0,0,0,0,0,0,0,0,0,0,0,0,0,0,0,0,0,0,0,0,0,0,0,0,0,0,0,0,0,0,0,0,0,0,0,0,0,0],"split_type":[0,0,0,0,0,0,0,0,0,0,0,0,0,0,0,0,0,0,0,0,0,0,0,0,0,0,0,0,0,0,0,0,0,0,0,0,0,0,0,0,0,0,0,0,0,0,0,0,0,0,0,0,0,0,0,0,0,0,0,0,0,0,0,0,0,0,0,0,0,0,0,0,0,0,0,0,0,0,0,0,0,0,0,0,0,0,0,0,0,0,0,0,0,0,0,0,0,0,0,0,0,0,0,0,0,0,0,0,0,0,0,0,0,0,0,0,0,0,0,0,0],"sum_hessian":[2.0577E4,5.223E3,1.5354E4,1.93E2,5.03E3,3.26E2,1.5028E4,1.66E2,2.7E1,1.575E3,3.455E3,3.17E2,9E0,1.2133E4,2.895E3,3E1,1.36E2,1.2E1,1.5E1,4.88E2,1.087E3,3.103E3,3.52E2,2.49E2,6.8E1,4E0,5E0,1.1338E4,7.95E2,2.166E3,7.29E2,2.7E1,3E0,3E0,1.33E2,7E0,5E0,4E0,1.1E1,2.81E2,2.07E2,1.044E3,4.3E1,2.06E3,1.043E3,1.81E2,1.71E2,1.78E2,7.1E1,1.6E1,5.2E1,2E0,2E0,2E0,3E0,9.805E3,1.533E3,6.67E2,1.28E2,1.855E3,3.11E2,6.06E2,1.23E2,2.5E1,2E0,1E0,2E0,2E0,1E0,1.32E2,1E0,6E0,1E0,4E0,1E0,3E0,1E0,1E0,1E1,8E1,2.01E2,3.7E1,1.7E2,1.036E3,8E0,3.8E1,5E0,1.868E3,1.92E2,6.61E2,3.82E2,1.31E2,5E1,1.63E2,8E0,2E0,1.76E2,3.5E1,3.6E1,2E0,1.4E1,2.9E1,2.3E1,1E0,1E0,7.185E3,2.62E3,1.99E2,1.334E3,5.18E2,1.49E2,1.2E2,8E0,3.51E2,1.504E3,1.42E2,1.69E2,4.79E2,1.27E2,8.1E1,4.2E1],"tree_param":{"num_deleted":"0","num_feature":"27","num_nodes":"121","size_leaf_vector":"1"}},{"base_weights":[2.5002137E-4,-5.409853E-3,3.5297263E-1,-1.4723592E-2,1.9145696E-1,2.4366195E-1,5.109521E-1,-1.0493306E-3,-1.428505E-1,2.22868E-2,2.2864468E-1,1.3964768E-1,4.792938E-1,-6.632451E-1,5.4340047E-1,3.682695E-2,-4.491702E-2,-3.3208185E-1,-7.517381E-2,-2.7933002E-3,5.923624E-1,3.4136996E-1,1.5018678E-1,2.3822495E-1,-4.799189E-1,5.425398E-1,2.137666E-1,-4.4542503E-2,-3.311333E-1,6.190107E-1,1.6802265E-1,-4.1306455E-2,7.5931504E-2,-5.5795778E-2,2.4201488E-1,-2.263095E-1,-6.240627E-1,-1.0407495E-1,1.2892585E-1,1.1544571E-1,-1.383368E-1,-2.051983E-2,2.141668E-1,5.235463E-1,2.7152988E-1,1.8196215E-1,-2.7901298E-1,-2.8847486E-1,2.5669837E-1,-5.480717E-1,1.1202464E-1,4.5937738E-1,2.318838E-1,5.475521E-2,1.3717015E-1,5.124962E-1,8.1484485E-1,-1.242578E-1,6.3648754E-1,1.0647237E-2,-2.9099302E-2,1.806095E-2,6.0171377E-2,1.0027749E-1,-1.9154614E-2,8.834601E-3,9.122344E-2,8.439242E-3,-9.35558E-2,-3.2540432E-1,-1.02361396E-1,-3.923611E-2,4.434712E-2,6.1969366E-2,-3.2096554E-2,5.0031986E-2,-5.568211E-2,-2.0752844E-1,-2.6677245E-2,1.6738553E-1,1.961358E-2,-2.1075982E-1,8.5040934E-2,5.6589775E-2,-3.859385E-1,-1.4370042E-1,1.4252709E-1,8.747227E-2,-7.647955E-2,-5.0192025E-2,-2.04495E-1,1.7563972E-1,7.718843E-2,-6.516406E-2,6.808255E-2,1.632935E-1,-6.807833E-3,2.895205E-1,1.5295383E-1,-9.2906795E-2,6.1651304E-2,2.2503158E-1,-4.086814E-2],"categories":[],"categories_nodes":[],"categories_segments":[],"categories_sizes":[],"default_left":[0,0,0,0,0,0,0,0,0,0,0,0,0,0,0,0,0,0,0,0,0,0,0,0,0,0,0,0,0,0,0,0,0,0,0,0,0,0,0,0,0,0,0,0,0,0,0,0,0,0,0,0,0,0,0,0,0,0,0,0,0,0,0,0,0,0,0,0,0,0,0,0,0,0,0,0,0,0,0,0,0,0,0,0,0,0,0,0,0,0,0,0,0,0,0,0,0,0,0,0,0,0,0],"id":9,"left_children":[1,3,5,7,9,11,13,15,17,19,21,23,25,27,29,31,33,35,37,39,41,43,45,47,49,51,53,-1,-1,55,57,59,61,63,65,67,69,71,73,75,77,-1,-1,79,81,83,85,-1,87,89,-1,91,-1,93,-1,95,97,99,101,-1,-1,-1,-1,-1,-1,-1,-1,-1,-1,-1,-1,-1,-1,-1,-1,-1,-1,-1,-1,-1,-1,-1,-1,-1,-1,-1,-1,-1,-1,-1,-1,-1,-1,-1,-1,-1,-1,-1,-1,-1,-1,-1,-1],"loss_changes":[4.108312E1,3.7139874E1,5.487873E0,3.3884315E1,5.751213E0,4.687827E0,5.3897057E0,2.9038815E1,2.3859253E1,2.3750484E0,6.581871E0,8.420553E0,8.748417E-1,7.432085E-1,3.5573196E0,2.8659472E1,2.5291103E1,1.5022572E1,8.124147E0,2.5802147E0,6.1093163E-1,3.7638702E0,6.1060343E0,2.8622546E0,1.3096433E0,5.454979E-1,4.782467E-1,0E0,0E0,1.8143272E0,3.2283204E0,1.3385962E1,1.2242241E1,2.4531193E1,3.8960419E0,7.88793E0,1.6567554E1,8.127463E0,3.1541502E0,1.3598524E0,1.9894484E0,0E0,0E0,1.287653E0,2.8043118E0,4.297803E0,4.902738E0,0E0,2.1620255E0,8.014703E-1,0E0,7.921324E-1,0E0,4.7075918E-1,0E0,1.2383156E0,1.1574097E0,9.808668E-1,8.9233136E-1,0E0,0E0,0E0,0E0,0E0,0E0,0E0,0E0,0E0,0E0,0E0,0E0,0E0,0E0,0E0,0E0,0E0,0E0,0E0,0E0,0E0,0E0,0E0,0E0,0E0,0E0,0E0,0E0,0E0,0E0,0E0,0E0,0E0,0E0,0E0,0E0,0E0,0E0,0E0,0E0,0E0,0E0,0E0,0E0],"parents":[2147483647,0,0,1,1,2,2,3,3,4,4,5,5,6,6,7,7,8,8,9,9,10,10,11,11,12,12,13,13,14,14,15,15,16,16,17,17,18,18,19,19,20,20,21,21,22,22,23,23,24,24,25,25,26,26,29,29,30,30,31,31,32,32,33,33,34,34,35,35,36,36,37,37,38,38,39,39,40,40,43,43,44,44,45,45,46,46,48,48,49,49,51,51,53,53,55,55,56,56,57,57,58,58],"right_children":[2,4,6,8,10,12,14,16,18,20,22,24,26,28,30,32,34,36,38,40,42,44,46,48,50,52,54,-1,-1,56,58,60,62,64,66,68,70,72,74,76,78,-1,-1,80,82,84,86,-1,88,90,-1,92,-1,94,-1,96,98,100,102,-1,-1,-1,-1,-1,-1,-1,-1,-1,-1,-1,-1,-1,-1,-1,-1,-1,-1,-1,-1,-1,-1,-1,-1,-1,-1,-1,-1,-1,-1,-1,-1,-1,-1,-1,-1,-1,-1,-1,-1,-1,-1,-1,-1],"split_conditions":[1E0,1E0,2.016E3,1E0,1.964E3,5.7927E4,7.6E2,2.002E3,9.1E1,3.1E1,2.007E3,3.6E7,1.03E2,2.023E3,1.8472E4,8.85E2,1E0,2.006E3,5.4E1,1.953E3,8.7E1,1.1E2,5.2E1,9E0,2.0997E4,2.60687E5,1E0,-4.4542503E-2,-3.311333E-1,1.0359E4,2.0394E4,1.965E3,1.5E1,1.4E1,1.48E2,3.543E3,2.967E3,3.20676E5,1.1E8,1E0,2.56E2,-2.051983E-2,2.141668E-1,1E0,1.73E2,1E0,2.022E3,-2.8847486E-1,1.2E2,1E0,1.1202464E-1,6.3E7,2.318838E-1,1.09E2,1.3717015E-1,1E0,1.01E2,5.471E3,1.18E2,1.0647237E-2,-2.9099302E-2,1.806095E-2,6.0171377E-2,1.0027749E-1,-1.9154614E-2,8.834601E-3,9.122344E-2,8.439242E-3,-9.35558E-2,-3.2540432E-1,-1.02361396E-1,-3.923611E-2,4.434712E-2,6.1969366E-2,-3.2096554E-2,5.0031986E-2,-5.568211E-2,-2.0752844E-1,-2.6677245E-2,1.6738553E-1,1.961358E-2,-2.1075982E-1,8.5040934E-2,5.6589775E-2,-3.859385E-1,-1.4370042E-1,1.4252709E-1,8.747227E-2,-7.647955E-2,-5.0192025E-2,-2.04495E-1,1.7563972E-1,7.718843E-2,-6.516406E-2,6.808255E-2,1.632935E-1,-6.807833E-3,2.895205E-1,1.5295383E-1,-9.2906795E-2,6.1651304E-2,2.2503158E-1,-4.086814E-2],"split_indices":[10,17,0,9,0,7,5,0,1,3,0,2,1,0,6,7,13,0,4,0,1,1,3,3,6,7,16,0,0,5,6,0,3,3,7,5,5,7,2,26,7,0,0,12,7,22,0,0,1,11,0,2,0,1,0,13,1,7,1,0,0,0,0,0,0,0,0,0,0,0,0,0,0,0,0,0,0,0,0,0,0,0,0,0,0,0,0,0,0,0,0,0,0,0,0,0,0,0,0,0,0,0,0],"split_type":[0,0,0,0,0,0,0,0,0,0,0,0,0,0,0,0,0,0,0,0,0,0,0,0,0,0,0,0,0,0,0,0,0,0,0,0,0,0,0,0,0,0,0,0,0,0,0,0,0,0,0,0,0,0,0,0,0,0,0,0,0,0,0,0,0,0,0,0,0,0,0,0,0,0,0,0,0,0,0,0,0,0,0,0,0,0,0,0,0,0,0,0,0,0,0,0,0,0,0,0,0,0,0],"sum_hessian":[2.0577E4,2.0253E4,3.24E2,1.9339E4,9.14E2,1.93E2,1.31E2,1.7475E4,1.864E3,1.65E2,7.49E2,1.35E2,5.8E1,3E0,1.28E2,9.378E3,8.097E3,4.9E2,1.374E3,1.59E2,6E0,3.06E2,4.43E2,1.17E2,1.8E1,4.6E1,1.2E1,2E0,1E0,1.06E2,2.2E1,3.128E3,6.25E3,7.802E3,2.95E2,3.61E2,1.29E2,1.204E3,1.7E2,8.5E1,7.4E1,1E0,5E0,8.3E1,2.23E2,4.13E2,3E1,1E0,1.16E2,1.7E1,1E0,3.6E1,1E1,8E0,4E0,7.1E1,3.5E1,1.4E1,8E0,1.315E3,1.813E3,5.551E3,6.99E2,1.57E2,7.645E3,6.7E1,2.28E2,9.1E1,2.7E2,4.8E1,8.1E1,1.089E3,1.15E2,1.28E2,4.2E1,7.3E1,1.2E1,5E0,6.9E1,7.7E1,6E0,2E0,2.21E2,4.12E2,1E0,2.4E1,6E0,1.09E2,7E0,5E0,1.2E1,2.1E1,1.5E1,3E0,5E0,6.7E1,4E0,2.2E1,1.3E1,9E0,5E0,7E0,1E0],"tree_param":{"num_deleted":"0","num_feature":"27","num_nodes":"103","size_leaf_vector":"1"}},{"base_weights":[1.7632192E-4,1.22475885E-2,-1.18842E-1,-8.229427E-3,7.84495E-2,-1.7705283E-1,-4.9553644E-3,3.4805807E-1,-1.2754173E-2,1.091187E-1,-1.8695423E-2,-1.9365744E-1,1.6868469E-1,9.20577E-2,-9.413467E-2,5.0144E-1,1.5198001E-1,-1.7601272E-2,2.888013E-1,9.4173096E-2,3.722194E-1,-3.7461442E-1,4.932063E-3,-1.7551409E-1,-5.897849E-1,3.783611E-1,-2.8161752E-1,1.9082995E-2,2.3296039E-1,-2.5101134E-1,3.9124347E-2,5.552717E-1,1.5937543E-1,-2.4275704E-1,1.8699963E-1,7.6303475E-2,-3.0908793E-2,1.6667232E-1,4.1052905E-1,1.44416E-1,5.5586252E-2,-6.679538E-1,3.996549E-1,-1.664042E-1,-1.2106712E0,-3.597974E-2,1.6180289E-1,5.2192324E-1,-1.8397711E-1,-4.800344E-1,-1.0608113E0,5.233212E-1,-2.6689452E-1,-3.8915327E-1,9.731321E-2,-1.308015E-2,4.9264E-1,3.1096154E-1,-1.6003188E-2,3.3276927E-1,-2.9386255E-1,1.5183421E-2,2.2165832E-1,1.7462522E-1,-1.1416955E-1,-1.8371633E-1,9.7564496E-2,8.353859E-3,9.682616E-2,-2.2194E-2,3.276611E-2,-5.749639E-3,-5.3093325E-2,-3.471183E-2,6.971578E-2,-2.814633E-1,1.2939586E-1,2.729905E-2,6.9909506E-2,-6.8046294E-2,2.2883601E-2,-2.7543628E-1,4.9907185E-2,2.5463378E-1,1.0293505E-1,-1.2609113E-3,-2.4002437E-1,6.3277625E-2,-6.3766044E-1,1.6072553E-2,-4.5853358E-2,-4.9853966E-2,6.5595984E-2,2.2863895E-1,-1.8862354E-2,-5.9786826E-2,4.343746E-2,-2.0314753E-1,-4.730395E-2,-9.414697E-3,-3.5567015E-1,1.0848261E-1,2.950416E-1,-1.5591769E-1,-2.8798962E-2,-8.531938E-3,-1.8794067E-1,1.0425611E-1,-1.5635598E-2,1.5640733E-1,-1.1745014E-2,2.3170994E-1,-9.895088E-2,1.5986842E-1,8.035733E-2,-6.375061E-2,5.028094E-2,-4.4787966E-2,2.8233087E-1,-2.4275903E-1,-5.8290206E-2,4.870109E-2,-1.850023E-2],"categories":[],"categories_nodes":[],"categories_segments":[],"categories_sizes":[],"default_left":[0,0,0,0,0,0,0,0,0,0,0,0,0,0,0,0,0,0,0,0,0,0,0,0,0,0,0,0,0,0,0,0,0,0,0,0,0,0,0,0,0,0,0,0,0,0,0,0,0,0,0,0,0,0,0,0,0,0,0,0,0,0,0,0,0,0,0,0,0,0,0,0,0,0,0,0,0,0,0,0,0,0,0,0,0,0,0,0,0,0,0,0,0,0,0,0,0,0,0,0,0,0,0,0,0,0,0,0,0,0,0,0,0,0,0,0,0,0,0,0,0,0,0],"id":10,"left_children":[1,3,5,7,9,11,13,15,17,19,21,23,25,27,29,31,33,35,37,39,41,43,45,47,49,51,53,55,57,59,61,63,65,-1,67,69,71,73,75,77,79,81,83,85,87,89,91,93,95,97,99,101,103,105,107,109,111,113,115,117,119,121,-1,-1,-1,-1,-1,-1,-1,-1,-1,-1,-1,-1,-1,-1,-1,-1,-1,-1,-1,-1,-1,-1,-1,-1,-1,-1,-1,-1,-1,-1,-1,-1,-1,-1,-1,-1,-1,-1,-1,-1,-1,-1,-1,-1,-1,-1,-1,-1,-1,-1,-1,-1,-1,-1,-1,-1,-1,-1,-1,-1,-1],"loss_changes":[2.9565908E1,2.5329006E1,1.2561903E1,2.3010864E1,1.3152924E1,7.231678E0,5.562966E0,5.307184E0,2.0604391E1,1.31574745E1,8.915887E0,8.49942E0,5.582783E0,3.1625125E0,7.013073E0,1.7528954E0,2.8441036E0,1.7336105E1,3.2468033E0,6.149332E0,5.4037323E0,1.1287526E1,6.3916E0,6.8602104E0,2.178934E0,3.881125E0,8.120929E-1,3.1135845E0,2.0440183E0,3.9502077E0,3.0377085E0,2.3794327E0,2.1189904E0,0E0,1.6762612E0,8.526581E0,2.083794E1,2.1237285E0,3.51721E0,6.50667E0,1.0524256E1,1.196322E0,4.1778717E0,5.5469275E0,1.7355698E1,8.276183E0,3.8774004E0,2.0145295E0,5.7326126E0,2.6891537E0,1.118639E0,2.099969E0,2.9577476E-1,1.2662277E0,2.050569E-1,2.6954968E0,3.2456436E0,6.225519E-1,9.736551E-1,3.3663034E0,7.2310724E0,2.011682E0,0E0,0E0,0E0,0E0,0E0,0E0,0E0,0E0,0E0,0E0,0E0,0E0,0E0,0E0,0E0,0E0,0E0,0E0,0E0,0E0,0E0,0E0,0E0,0E0,0E0,0E0,0E0,0E0,0E0,0E0,0E0,0E0,0E0,0E0,0E0,0E0,0E0,0E0,0E0,0E0,0E0,0E0,0E0,0E0,0E0,0E0,0E0,0E0,0E0,0E0,0E0,0E0,0E0,0E0,0E0,0E0,0E0,0E0,0E0,0E0,0E0],"parents":[2147483647,0,0,1,1,2,2,3,3,4,4,5,5,6,6,7,7,8,8,9,9,10,10,11,11,12,12,13,13,14,14,15,15,16,16,17,17,18,18,19,19,20,20,21,21,22,22,23,23,24,24,25,25,26,26,27,27,28,28,29,29,30,30,31,31,32,32,34,34,35,35,36,36,37,37,38,38,39,39,40,40,41,41,42,42,43,43,44,44,45,45,46,46,47,47,48,48,49,49,50,50,51,51,52,52,53,53,54,54,55,55,56,56,57,57,58,58,59,59,60,60,61,61],"right_children":[2,4,6,8,10,12,14,16,18,20,22,24,26,28,30,32,34,36,38,40,42,44,46,48,50,52,54,56,58,60,62,64,66,-1,68,70,72,74,76,78,80,82,84,86,88,90,92,94,96,98,100,102,104,106,108,110,112,114,116,118,120,122,-1,-1,-1,-1,-1,-1,-1,-1,-1,-1,-1,-1,-1,-1,-1,-1,-1,-1,-1,-1,-1,-1,-1,-1,-1,-1,-1,-1,-1,-1,-1,-1,-1,-1,-1,-1,-1,-1,-1,-1,-1,-1,-1,-1,-1,-1,-1,-1,-1,-1,-1,-1,-1,-1,-1,-1,-1,-1,-1,-1,-1],"split_conditions":[1E0,1.12E2,1.8725E4,1.1E1,1E0,5.4E1,3E7,9.9E1,1E0,1.66E2,1.253E3,5.2E1,5E2,6.8893E4,1.99002E5,1.3E5,1.83E2,1.952E3,2.014E3,2.004E3,1.938E3,2.017E3,2.5E1,1.946E3,3.947E3,1.2695E4,1E0,2.0394E4,1E0,2.5375E4,2.023E3,1E0,8.48E2,-2.4275704E-1,8.874E3,6.9E1,1E0,4.687E3,3.33E2,1.26E2,3.44E2,3.7E1,5.72E2,3.6E7,1.5E1,2.001E3,3.56E2,8.2E1,2.023E3,1E0,1.987E3,1.1382E4,4.429E3,1.954E3,6E1,8.1E1,1.2E7,9.1E1,9.3E3,1.02E2,5.2705E4,9.5E7,2.2165832E-1,1.7462522E-1,-1.1416955E-1,-1.8371633E-1,9.7564496E-2,8.353859E-3,9.682616E-2,-2.2194E-2,3.276611E-2,-5.749639E-3,-5.3093325E-2,-3.471183E-2,6.971578E-2,-2.814633E-1,1.2939586E-1,2.729905E-2,6.9909506E-2,-6.8046294E-2,2.2883601E-2,-2.7543628E-1,4.9907185E-2,2.5463378E-1,1.0293505E-1,-1.2609113E-3,-2.4002437E-1,6.3277625E-2,-6.3766044E-1,1.6072553E-2,-4.5853358E-2,-4.9853966E-2,6.5595984E-2,2.2863895E-1,-1.8862354E-2,-5.9786826E-2,4.343746E-2,-2.0314753E-1,-4.730395E-2,-9.414697E-3,-3.5567015E-1,1.0848261E-1,2.950416E-1,-1.5591769E-1,-2.8798962E-2,-8.531938E-3,-1.8794067E-1,1.0425611E-1,-1.5635598E-2,1.5640733E-1,-1.1745014E-2,2.3170994E-1,-9.895088E-2,1.5986842E-1,8.035733E-2,-6.375061E-2,5.028094E-2,-4.4787966E-2,2.8233087E-1,-2.4275903E-1,-5.8290206E-2,4.870109E-2,-1.850023E-2],"split_indices":[22,1,7,3,21,4,2,1,10,1,6,4,2,7,7,2,5,0,0,0,0,0,3,0,7,5,15,6,14,7,0,20,7,0,6,1,9,6,5,1,7,4,7,2,3,0,7,1,0,18,0,5,6,0,4,1,2,1,6,1,7,2,0,0,0,0,0,0,0,0,0,0,0,0,0,0,0,0,0,0,0,0,0,0,0,0,0,0,0,0,0,0,0,0,0,0,0,0,0,0,0,0,0,0,0,0,0,0,0,0,0,0,0,0,0,0,0,0,0,0,0,0,0],"split_type":[0,0,0,0,0,0,0,0,0,0,0,0,0,0,0,0,0,0,0,0,0,0,0,0,0,0,0,0,0,0,0,0,0,0,0,0,0,0,0,0,0,0,0,0,0,0,0,0,0,0,0,0,0,0,0,0,0,0,0,0,0,0,0,0,0,0,0,0,0,0,0,0,0,0,0,0,0,0,0,0,0,0,0,0,0,0,0,0,0,0,0,0,0,0,0,0,0,0,0,0,0,0,0,0,0,0,0,0,0,0,0,0,0,0,0,0,0,0,0,0,0,0,0],"sum_hessian":[2.0577E4,1.8683E4,1.894E3,1.427E4,4.413E3,1.253E3,6.41E2,1.78E2,1.4092E4,3.354E3,1.059E3,1.196E3,5.7E1,3.07E2,3.34E2,9.9E1,7.9E1,1.387E4,2.22E2,3.175E3,1.79E2,6.5E1,9.94E2,1.145E3,5.1E1,3.9E1,1.8E1,2.03E2,1.04E2,1.53E2,1.81E2,8.5E1,1.4E1,2E0,7.7E1,1.721E3,1.2149E4,1.12E2,1.1E2,1.378E3,1.797E3,4E0,1.75E2,5.3E1,1.2E1,7.89E2,2.05E2,1.3E1,1.132E3,4.3E1,8E0,3.2E1,7E0,1.4E1,4E0,1.91E2,1.2E1,7.9E1,2.5E1,1E1,1.43E2,1.76E2,5E0,8.3E1,2E0,2E0,1.2E1,3.6E1,4.1E1,3.09E2,1.412E3,1.1246E4,9.03E2,2.1E1,9.1E1,1E0,1.09E2,8.61E2,5.17E2,1.22E2,1.675E3,3E0,1E0,1.8E1,1.57E2,4.3E1,1E1,5E0,7E0,4.47E2,3.42E2,3E1,1.75E2,9E0,4E0,1.082E3,5E1,2.6E1,1.7E1,1E0,7E0,2.5E1,7E0,2E0,5E0,6E0,8E0,1E0,3E0,8E0,1.83E2,9E0,3E0,1.1E1,6.8E1,1.2E1,1.3E1,6E0,4E0,2.2E1,1.21E2,6E1,1.16E2],"tree_param":{"num_deleted":"0","num_feature":"27","num_nodes":"123","size_leaf_vector":"1"}},{"base_weights":[9.4642084E-5,-1.1050837E-2,1.0754416E-1,-3.1596217E-2,5.205011E-2,2.0360643E-1,1.8911263E-2,-8.700526E-3,-1.1842525E-1,1.4028358E-1,9.832387E-4,1.9468533E-1,6.999416E-1,2.4011564E-1,-5.291054E-2,-2.2458438E-2,1.5160467E-1,-6.2323935E-2,-1.9925824E-1,1.5125088E-1,-1.4819013E-1,-7.466725E-2,6.165329E-2,-4.055697E-1,1.9786349E-1,7.784557E-1,-7.1665555E-2,5.2613974E-2,4.7702038E-1,-1.0873965E-1,6.301314E-2,2.4107355E-1,-2.9258037E-2,6.456677E-2,3.114338E-1,-3.9206263E-1,-4.550966E-2,-1.7203479E-1,-6.887102E-1,1.4531885E-1,6.1795497E-1,3.566868E-1,-3.7957034E-1,-3.1776827E-2,-2.2678617E-1,1.03101835E-1,-1.7180013E-2,1.6827607E-1,3.109114E-1,4.6983093E-1,3.4892634E-1,1.9357921E-1,-3.1379893E-1,5.332891E-1,1.4113744E-1,-1.9633105E-1,7.3550316E-3,-7.3692225E-2,1.9812076E-1,1.1546724E-2,1.0886655E-1,6.836435E-3,-1.9636232E-2,9.5221125E-2,-1.5792161E-2,1.7409521E-1,6.218292E-2,-2.7440727E-1,-5.755825E-2,-2.8711664E-3,-5.9193213E-2,9.302661E-2,-5.9308812E-2,-2.579042E-1,1.0499261E-2,4.868018E-2,-1.8064234E-3,2.1718627E-1,3.8908483E-3,2.3012675E-2,2.0710765E-1,-2.5194648E-1,1.7148623E-2,-3.3224814E-2,2.3233239E-2,-8.2026884E-2,1.2286562E-2,3.2714654E-2,-2.4110337E-1,-3.2741047E-2,3.0514661E-2,2.3849769E-2,6.051349E-2,1.5796833E-1,6.670455E-2,1.5072352E-1,2.6490571E-2,-5.3100634E-2,1.0806672E-1,-4.085712E-1,-2.4589367E-2,2.6325363E-1,1.399152E-1,-1.2415052E-1,1.22058675E-1,-1.9767296E-3,-9.260902E-2,8.759333E-2,-2.7126355E-2,3.9024383E-2,-9.703631E-2,3.4323562E-2,1.8956156E-1],"categories":[],"categories_nodes":[],"categories_segments":[],"categories_sizes":[],"default_left":[0,0,0,0,0,0,0,0,0,0,0,0,0,0,0,0,0,0,0,0,0,0,0,0,0,0,0,0,0,0,0,0,0,0,0,0,0,0,0,0,0,0,0,0,0,0,0,0,0,0,0,0,0,0,0,0,0,0,0,0,0,0,0,0,0,0,0,0,0,0,0,0,0,0,0,0,0,0,0,0,0,0,0,0,0,0,0,0,0,0,0,0,0,0,0,0,0,0,0,0,0,0,0,0,0,0,0,0,0,0,0,0,0],"id":11,"left_children":[1,3,5,7,9,11,13,15,17,19,21,23,25,27,29,31,33,35,37,39,41,43,45,-1,47,49,-1,51,53,55,57,59,61,63,65,67,69,71,73,75,77,79,81,83,85,87,89,91,93,95,-1,97,99,101,103,105,107,109,111,-1,-1,-1,-1,-1,-1,-1,-1,-1,-1,-1,-1,-1,-1,-1,-1,-1,-1,-1,-1,-1,-1,-1,-1,-1,-1,-1,-1,-1,-1,-1,-1,-1,-1,-1,-1,-1,-1,-1,-1,-1,-1,-1,-1,-1,-1,-1,-1,-1,-1,-1,-1,-1,-1],"loss_changes":[2.4644915E1,2.4173634E1,1.6462759E1,2.7962322E1,2.063646E1,3.972786E0,1.6011213E1,2.4554636E1,1.3297329E1,5.3343964E0,1.3323969E1,4.7551537E0,1.3653407E0,1.0946652E1,4.93198E0,1.8379526E1,1.2221743E1,9.596005E0,1.58976555E1,4.389641E0,7.378136E0,8.422375E0,5.2657557E0,0E0,2.9981346E0,1.234149E0,0E0,7.240301E0,1.9848003E0,5.2282557E0,4.595144E0,6.352907E0,1.8832615E1,1.6937916E1,8.561638E0,8.61352E0,9.005296E0,1.4165253E1,7.825241E0,4.102375E0,1.2731714E0,1.8154593E0,8.69129E0,8.711662E0,3.5573893E0,5.7822514E0,6.089991E0,2.1359844E0,3.4734497E0,7.994127E-2,0E0,6.3009996E0,9.364857E0,1.7325573E0,2.6753628E0,6.2448664E0,6.204512E0,6.3530426E0,4.4663086E0,0E0,0E0,0E0,0E0,0E0,0E0,0E0,0E0,0E0,0E0,0E0,0E0,0E0,0E0,0E0,0E0,0E0,0E0,0E0,0E0,0E0,0E0,0E0,0E0,0E0,0E0,0E0,0E0,0E0,0E0,0E0,0E0,0E0,0E0,0E0,0E0,0E0,0E0,0E0,0E0,0E0,0E0,0E0,0E0,0E0,0E0,0E0,0E0,0E0,0E0,0E0,0E0,0E0,0E0],"parents":[2147483647,0,0,1,1,2,2,3,3,4,4,5,5,6,6,7,7,8,8,9,9,10,10,11,11,12,12,13,13,14,14,15,15,16,16,17,17,18,18,19,19,20,20,21,21,22,22,24,24,25,25,27,27,28,28,29,29,30,30,31,31,32,32,33,33,34,34,35,35,36,36,37,37,38,38,39,39,40,40,41,41,42,42,43,43,44,44,45,45,46,46,47,47,48,48,49,49,51,51,52,52,53,53,54,54,55,55,56,56,57,57,58,58],"right_children":[2,4,6,8,10,12,14,16,18,20,22,24,26,28,30,32,34,36,38,40,42,44,46,-1,48,50,-1,52,54,56,58,60,62,64,66,68,70,72,74,76,78,80,82,84,86,88,90,92,94,96,-1,98,100,102,104,106,108,110,112,-1,-1,-1,-1,-1,-1,-1,-1,-1,-1,-1,-1,-1,-1,-1,-1,-1,-1,-1,-1,-1,-1,-1,-1,-1,-1,-1,-1,-1,-1,-1,-1,-1,-1,-1,-1,-1,-1,-1,-1,-1,-1,-1,-1,-1,-1,-1,-1,-1,-1,-1,-1,-1,-1],"split_conditions":[3.1E1,2.1308E4,4.7E1,5E2,1E7,1.58E2,2.006E3,1E0,2.003E3,1E0,8.469E4,9.6E1,2.023E3,6.4E1,2.759E3,5.6E1,1.02E3,1E5,1.3165E4,1E0,1.989E3,4.2E7,6.8E7,-4.055697E-1,1E0,3.2E1,-7.1665555E-2,6.3E1,1.9989E4,6.5E1,1.2924E4,1.982E3,1.976E3,1.99E3,8.6E1,1.094E3,1.5E7,1.13E2,1.3317E4,2.021E3,9.055E3,1.974E3,2.009E3,1.08E2,1.32E2,2.2E1,1.26E2,6.438E3,1.04E2,1.3102E4,3.4892634E-1,3.895E3,2.37E2,2.368E3,2.0753E4,5.5E1,3.267E3,2.017E3,1E0,1.1546724E-2,1.0886655E-1,6.836435E-3,-1.9636232E-2,9.5221125E-2,-1.5792161E-2,1.7409521E-1,6.218292E-2,-2.7440727E-1,-5.755825E-2,-2.8711664E-3,-5.9193213E-2,9.302661E-2,-5.9308812E-2,-2.579042E-1,1.0499261E-2,4.868018E-2,-1.8064234E-3,2.1718627E-1,3.8908483E-3,2.3012675E-2,2.0710765E-1,-2.5194648E-1,1.7148623E-2,-3.3224814E-2,2.3233239E-2,-8.2026884E-2,1.2286562E-2,3.2714654E-2,-2.4110337E-1,-3.2741047E-2,3.0514661E-2,2.3849769E-2,6.051349E-2,1.5796833E-1,6.670455E-2,1.5072352E-1,2.6490571E-2,-5.3100634E-2,1.0806672E-1,-4.085712E-1,-2.4589367E-2,2.6325363E-1,1.399152E-1,-1.2415052E-1,1.22058675E-1,-1.9767296E-3,-9.260902E-2,8.759333E-2,-2.7126355E-2,3.9024383E-2,-9.703631E-2,3.4323562E-2,1.8956156E-1],"split_indices":[3,7,3,2,2,1,0,23,0,15,7,6,0,3,7,7,7,2,5,13,0,2,2,0,11,3,0,3,6,3,6,0,0,0,1,7,2,7,7,0,5,0,0,1,1,3,1,5,1,5,0,5,7,5,6,3,5,0,12,0,0,0,0,0,0,0,0,0,0,0,0,0,0,0,0,0,0,0,0,0,0,0,0,0,0,0,0,0,0,0,0,0,0,0,0,0,0,0,0,0,0,0,0,0,0,0,0,0,0,0,0,0,0],"split_type":[0,0,0,0,0,0,0,0,0,0,0,0,0,0,0,0,0,0,0,0,0,0,0,0,0,0,0,0,0,0,0,0,0,0,0,0,0,0,0,0,0,0,0,0,0,0,0,0,0,0,0,0,0,0,0,0,0,0,0,0,0,0,0,0,0,0,0,0,0,0,0,0,0,0,0,0,0,0,0,0,0,0,0,0,0,0,0,0,0,0,0,0,0,0,0,0,0,0,0,0,0,0,0,0,0,0,0,0,0,0,0,0,0],"sum_hessian":[2.0577E4,1.8644E4,1.933E3,1.4065E4,4.579E3,9.27E2,1.006E3,1.1131E4,2.934E3,1.678E3,2.901E3,9.12E2,1.5E1,2.46E2,7.6E2,1.0252E4,8.79E2,1.733E3,1.201E3,1.617E3,6.1E1,1.291E3,1.61E3,1E0,9.11E2,1.4E1,1E0,1.38E2,1.08E2,5.13E2,2.47E2,2.57E2,9.995E3,5.7E2,3.09E2,8.3E1,1.65E3,1.139E3,6.2E1,1.598E3,1.9E1,1.9E1,4.2E1,1.008E3,2.83E2,1.055E3,5.55E2,7.24E2,1.87E2,9E0,5E0,1E2,3.8E1,9.2E1,1.6E1,2.92E2,2.21E2,1.23E2,1.24E2,9.7E1,1.6E2,4.1E3,5.895E3,1.8E2,3.9E2,8.5E1,2.24E2,2.2E1,6.1E1,1.335E3,3.15E2,5.7E1,1.082E3,5E1,1.2E1,1.437E3,1.61E2,1.6E1,3E0,1.1E1,8E0,2E1,2.2E1,5.85E2,4.23E2,2.41E2,4.2E1,1.049E3,6E0,3.13E2,2.42E2,1.99E2,5.25E2,5.3E1,1.34E2,8E0,1E0,3.1E1,6.9E1,6E0,3.2E1,1.3E1,7.9E1,5E0,1.1E1,1.09E2,1.83E2,5.6E1,1.65E2,6.8E1,5.5E1,1.05E2,1.9E1],"tree_param":{"num_deleted":"0","num_feature":"27","num_nodes":"113","size_leaf_vector":"1"}},{"base_weights":[8.0834514E-5,-5.1792007E-2,1.7728744E-2,2.0762157E-1,-6.1784938E-2,2.6160747E-2,-7.453875E-2,1.4948907E-1,5.204296E-1,-6.7715555E-2,3.6568528E-1,2.2772314E-2,2.3550655E-1,-1.8605067E-1,-4.7983006E-2,-6.157694E-1,1.7725196E-1,6.4317083E-1,2.8272018E-1,-7.642997E-2,2.0490804E-1,4.6476883E-1,1.3288097E-1,4.6580613E-2,-7.712174E-3,2.1992388E-1,3.1127167E-1,-1.2221494E-1,-5.9631217E-1,3.763941E-1,-5.667314E-2,-4.2711895E-2,-2.6748607E-1,2.783244E-2,3.121097E-1,6.8996435E-1,-2.9866863E-2,-7.303953E-2,4.6972996E-1,6.245173E-1,-8.007544E-2,2.8419578E-1,-6.3741817E-3,3.342133E-1,6.3083595E-1,-3.0948129E-2,3.7296167E-1,-5.0210103E-2,6.5095246E-2,-1.902952E-2,1.9716315E-1,2.85779E-1,2.078328E-2,-3.2399508E-1,1.7463712E-2,9.3258865E-2,-6.6486746E-1,6.2272817E-1,9.584236E-2,-8.074142E-2,7.319851E-2,1.7710805E-2,-3.6931157E-2,-1.3889779E-2,2.3272909E-1,1.6344263E-1,4.0433273E-2,5.812594E-2,2.3288693E-1,5.825472E-3,-6.64306E-2,1.7546362E-1,2.485676E-2,2.112251E-1,-5.8099154E-2,-4.62297E-3,-3.5375595E-2,-5.059096E-2,9.762028E-2,1.1756252E-2,-1.8807773E-1,1.1530827E-1,3.6509354E-2,-1.2632382E-2,2.2562031E-1,-5.870054E-2,4.8517454E-2,-2.3174286E-3,1.2645394E-1,-2.4970671E-2,8.01108E-2,2.6576025E-2,3.970286E-3,-1.8392107E-2,8.297652E-3,6.9835626E-2,-1.03574336E-1,8.887171E-2,-2.160184E-1,-2.612349E-1,2.0978961E-2,-1.9460302E-2,-1.6775388E-1,-3.1219065E-2,1.494681E-1,-2.2671847E-1,4.121243E-2,2.1304472E-1,4.586687E-2,7.22828E-2,-6.549565E-2,-4.0548943E-2,-4.4934954E-3,7.0952654E-2,-4.2045183E-2],"categories":[],"categories_nodes":[],"categories_segments":[],"categories_sizes":[],"default_left":[0,0,0,0,0,0,0,0,0,0,0,0,0,0,0,0,0,0,0,0,0,0,0,0,0,0,0,0,0,0,0,0,0,0,0,0,0,0,0,0,0,0,0,0,0,0,0,0,0,0,0,0,0,0,0,0,0,0,0,0,0,0,0,0,0,0,0,0,0,0,0,0,0,0,0,0,0,0,0,0,0,0,0,0,0,0,0,0,0,0,0,0,0,0,0,0,0,0,0,0,0,0,0,0,0,0,0,0,0,0,0,0,0,0,0],"id":12,"left_children":[1,3,5,7,9,11,13,15,17,19,21,23,25,27,29,31,33,35,37,39,41,43,45,47,49,51,-1,53,55,57,59,61,-1,63,65,67,-1,69,71,73,75,77,79,81,83,85,87,89,91,93,95,97,99,101,103,-1,105,107,109,111,113,-1,-1,-1,-1,-1,-1,-1,-1,-1,-1,-1,-1,-1,-1,-1,-1,-1,-1,-1,-1,-1,-1,-1,-1,-1,-1,-1,-1,-1,-1,-1,-1,-1,-1,-1,-1,-1,-1,-1,-1,-1,-1,-1,-1,-1,-1,-1,-1,-1,-1,-1,-1,-1,-1],"loss_changes":[1.8838991E1,1.35550165E1,1.1948137E1,3.4499578E0,1.2779167E1,9.975249E0,3.7992811E0,3.6147008E0,6.9346523E-1,1.1806526E1,1.52987E0,1.0050287E1,2.571436E0,6.3958893E0,3.856741E0,9.103873E-1,3.215374E0,7.2903156E-1,8.326754E-1,1.2340944E1,2.5816336E0,8.29854E-1,8.76851E-1,1.3936415E1,1.4084883E1,2.8923502E0,0E0,6.0653E0,2.2590065E0,1.3916147E0,3.1942134E0,3.1806704E-2,0E0,4.3052144E0,3.3928337E0,6.206322E-1,0E0,7.290161E-2,3.0792403E-1,1.7638483E0,1.1710247E1,2.144683E0,1.2403227E0,2.6228094E-1,1.663311E0,4.759646E-1,1.696018E-1,1.3108251E1,7.9506226E0,1.1363274E1,6.2247324E0,1.9598122E0,2.5146701E0,5.326689E0,7.530354E0,0E0,2.3634796E0,3.4323645E-1,5.54036E-1,3.079444E0,5.607885E0,0E0,0E0,0E0,0E0,0E0,0E0,0E0,0E0,0E0,0E0,0E0,0E0,0E0,0E0,0E0,0E0,0E0,0E0,0E0,0E0,0E0,0E0,0E0,0E0,0E0,0E0,0E0,0E0,0E0,0E0,0E0,0E0,0E0,0E0,0E0,0E0,0E0,0E0,0E0,0E0,0E0,0E0,0E0,0E0,0E0,0E0,0E0,0E0,0E0,0E0,0E0,0E0,0E0,0E0],"parents":[2147483647,0,0,1,1,2,2,3,3,4,4,5,5,6,6,7,7,8,8,9,9,10,10,11,11,12,12,13,13,14,14,15,15,16,16,17,17,18,18,19,19,20,20,21,21,22,22,23,23,24,24,25,25,27,27,28,28,29,29,30,30,31,31,33,33,34,34,35,35,37,37,38,38,39,39,40,40,41,41,42,42,43,43,44,44,45,45,46,46,47,47,48,48,49,49,50,50,51,51,52,52,53,53,54,54,56,56,57,57,58,58,59,59,60,60],"right_children":[2,4,6,8,10,12,14,16,18,20,22,24,26,28,30,32,34,36,38,40,42,44,46,48,50,52,-1,54,56,58,60,62,-1,64,66,68,-1,70,72,74,76,78,80,82,84,86,88,90,92,94,96,98,100,102,104,-1,106,108,110,112,114,-1,-1,-1,-1,-1,-1,-1,-1,-1,-1,-1,-1,-1,-1,-1,-1,-1,-1,-1,-1,-1,-1,-1,-1,-1,-1,-1,-1,-1,-1,-1,-1,-1,-1,-1,-1,-1,-1,-1,-1,-1,-1,-1,-1,-1,-1,-1,-1,-1,-1,-1,-1,-1,-1],"split_conditions":[9E1,4.2E1,1E0,1.343E3,1.22226E5,1E0,1.515E3,4.4E2,7.799E3,1E0,3.1E7,2.005E3,1E0,5E2,5.38E2,1E0,1.4E1,5.6E1,6.592E3,9E0,1.5E1,1E0,2.15741E5,5.25E2,2.024E3,2.02E3,3.1127167E-1,5.341E3,1.963E3,1.25E7,1E0,1.1E1,-2.6748607E-1,1E0,1.9E1,1.957E3,-2.9866863E-2,2.019E3,1.2059E4,1E0,1.966E3,1.676E3,1E0,1E0,1.956E3,5.588E3,1.997E3,1.15E2,2.8E6,1.0409E4,1.3165E4,1E0,2.16E3,2.905E3,2.016E3,9.3258865E-2,1.9521E4,1E0,1E0,3.9919E4,5.115E6,1.7710805E-2,-3.6931157E-2,-1.3889779E-2,2.3272909E-1,1.6344263E-1,4.0433273E-2,5.812594E-2,2.3288693E-1,5.825472E-3,-6.64306E-2,1.7546362E-1,2.485676E-2,2.112251E-1,-5.8099154E-2,-4.62297E-3,-3.5375595E-2,-5.059096E-2,9.762028E-2,1.1756252E-2,-1.8807773E-1,1.1530827E-1,3.6509354E-2,-1.2632382E-2,2.2562031E-1,-5.870054E-2,4.8517454E-2,-2.3174286E-3,1.2645394E-1,-2.4970671E-2,8.01108E-2,2.6576025E-2,3.970286E-3,-1.8392107E-2,8.297652E-3,6.9835626E-2,-1.03574336E-1,8.887171E-2,-2.160184E-1,-2.612349E-1,2.0978961E-2,-1.9460302E-2,-1.6775388E-1,-3.1219065E-2,1.494681E-1,-2.2671847E-1,4.121243E-2,2.1304472E-1,4.586687E-2,7.22828E-2,-6.549565E-2,-4.0548943E-2,-4.4934954E-3,7.0952654E-2,-4.2045183E-2],"split_indices":[1,1,22,7,7,13,7,5,5,13,2,0,9,2,6,14,1,3,6,3,3,11,7,7,0,0,0,5,0,2,11,1,0,16,1,0,0,0,6,10,0,6,23,20,5,5,0,1,2,7,5,21,6,5,0,0,6,8,18,7,2,0,0,0,0,0,0,0,0,0,0,0,0,0,0,0,0,0,0,0,0,0,0,0,0,0,0,0,0,0,0,0,0,0,0,0,0,0,0,0,0,0,0,0,0,0,0,0,0,0,0,0,0,0,0],"split_type":[0,0,0,0,0,0,0,0,0,0,0,0,0,0,0,0,0,0,0,0,0,0,0,0,0,0,0,0,0,0,0,0,0,0,0,0,0,0,0,0,0,0,0,0,0,0,0,0,0,0,0,0,0,0,0,0,0,0,0,0,0,0,0,0,0,0,0,0,0,0,0,0,0,0,0,0,0,0,0,0,0,0,0,0,0,0,0,0,0,0,0,0,0,0,0,0,0,0,0,0,0,0,0,0,0,0,0,0,0,0,0,0,0,0,0],"sum_hessian":[2.0577E4,5.223E3,1.5354E4,1.93E2,5.03E3,1.4069E4,1.285E3,1.64E2,2.9E1,4.962E3,6.8E1,1.3846E4,2.23E2,2.46E2,1.039E3,5E0,1.59E2,1.8E1,1.1E1,4.809E3,1.53E2,4.7E1,2.1E1,7.774E3,6.072E3,2.2E2,3E0,2.14E2,3.2E1,2E1,1.019E3,2E0,3E0,7.6E1,8.3E1,1.7E1,1E0,4E0,7E0,2.4E1,4.785E3,1.11E2,4.2E1,2.8E1,1.9E1,1.3E1,8E0,1.248E3,6.526E3,5.755E3,3.17E2,1.65E2,5.5E1,8.7E1,1.27E2,2E0,3E1,1E1,1E1,8.6E2,1.59E2,1E0,1E0,7E1,6E0,3.5E1,4.8E1,3E0,1.4E1,3E0,1E0,5E0,2E0,2.2E1,2E0,1.767E3,3.018E3,9E0,1.02E2,4E1,2E0,2.2E1,6E0,3E0,1.6E1,7E0,6E0,1E0,7E0,1.131E3,1.17E2,4.491E3,2.035E3,3.02E3,2.735E3,2.98E2,1.9E1,1.64E2,1E0,2E0,5.3E1,4.2E1,4.5E1,1.02E2,2.5E1,2.7E1,3E0,8E0,2E0,7E0,3E0,4.7E2,3.9E2,9E1,6.9E1],"tree_param":{"num_deleted":"0","num_feature":"27","num_nodes":"115","size_leaf_vector":"1"}},{"base_weights":[1.08776665E-4,-1.3901223E-2,6.0520995E-2,-1.9997416E-2,1.5683746E-1,1.4824022E-1,3.252459E-2,-6.446104E-2,2.3045463E-3,6.425215E-1,1.2613747E-1,-8.782236E-3,1.9962971E-1,-1.4524332E-1,6.092375E-2,9.085622E-2,-8.274681E-2,1.1054748E-2,-1.06316626E-1,8.095078E-1,-1.1721257E-1,1.0732133E-1,5.887423E-1,4.567666E-2,-7.0021397E-1,1.8966931E-1,7.1600574E-1,-3.0262777E-1,9.764308E-2,4.237783E-1,5.3449314E-2,6.365327E-3,1.6472988E-1,-4.0787507E-2,-2.0765634E-1,2.7640551E-2,-6.5704264E-2,-1.350346E-1,1.4713779E-1,3.2257473E-1,1.4318707E0,2.4977095E-1,-3.1396016E-1,4.3586E-2,2.235319E-1,7.467224E-1,1.6610745E-1,-1.9716834E-1,1.736182E-1,-8.7297326E-1,1.1909614E-1,1.9720271E-1,-2.5491253E-1,2.6369727E-1,1.1380737E-1,-1.02735914E-1,-7.4840254E-1,4.0804726E-1,-3.995772E-1,5.094357E-1,-3.2560244E-2,-4.724049E-2,8.210838E-2,3.475839E-2,-5.3853095E-2,-1.7427796E-1,5.6859616E-2,-1.9388005E-2,4.9695447E-2,-4.958655E-2,-1.7442688E-1,1.7470416E-2,-2.0887356E-3,-2.7371442E-2,2.3425853E-2,-5.3180397E-2,1.0099539E-2,9.109491E-3,9.859393E-2,1.6058442E-1,-2.54545E-1,4.9574354E-1,-1.4922217E-1,2.152877E-2,9.086817E-2,-1.13328695E-2,-1.1206863E-1,1.9034225E-2,-2.0751466E-1,1.4536612E-1,4.650073E-2,2.5428227E-1,1.819377E-2,5.6879405E-2,3.7746192E-3,-1.0387121E-1,6.0791858E-2,6.384612E-2,-1.5288627E-1,-3.2123718E-1,-1.8383432E-2,5.6775343E-2,1.8781699E-1,-3.2617944E-1,4.3003626E-2,3.0672562E-1,-5.3691518E-2,2.6268668E-2,-2.8157434E-1,1.6875729E-1,1.0199829E-2,-6.879976E-2,-5.1133573E-1,1.7805767E-1,-2.3446903E-3,-1.7485577E-1,6.2379234E-2,4.5633465E-3,-1.4958322E-1,4.506576E-2,5.7778135E-3],"categories":[],"categories_nodes":[],"categories_segments":[],"categories_sizes":[],"default_left":[0,0,0,0,0,0,0,0,0,0,0,0,0,0,0,0,0,0,0,0,0,0,0,0,0,0,0,0,0,0,0,0,0,0,0,0,0,0,0,0,0,0,0,0,0,0,0,0,0,0,0,0,0,0,0,0,0,0,0,0,0,0,0,0,0,0,0,0,0,0,0,0,0,0,0,0,0,0,0,0,0,0,0,0,0,0,0,0,0,0,0,0,0,0,0,0,0,0,0,0,0,0,0,0,0,0,0,0,0,0,0,0,0,0,0,0,0,0,0,0,0],"id":13,"left_children":[1,3,5,7,9,11,13,15,17,19,21,23,25,27,29,31,33,35,37,39,41,43,45,47,49,51,53,55,57,59,61,63,65,67,69,71,73,75,77,79,81,83,85,87,89,91,93,95,97,99,-1,101,103,-1,-1,105,107,109,111,113,115,117,119,-1,-1,-1,-1,-1,-1,-1,-1,-1,-1,-1,-1,-1,-1,-1,-1,-1,-1,-1,-1,-1,-1,-1,-1,-1,-1,-1,-1,-1,-1,-1,-1,-1,-1,-1,-1,-1,-1,-1,-1,-1,-1,-1,-1,-1,-1,-1,-1,-1,-1,-1,-1,-1,-1,-1,-1,-1,-1],"loss_changes":[1.741755E1,1.739063E1,9.509036E0,1.5995073E1,8.5074E0,7.5626907E0,1.4841224E1,1.5309959E1,1.0211936E1,4.4083004E0,4.6633244E0,8.767852E0,3.4953728E0,1.5511298E1,6.8498974E0,3.5442095E0,2.5258957E1,1.2660347E1,5.850108E0,8.023491E0,5.8384E-1,3.8639712E0,1.2780895E0,6.745344E0,3.5689373E0,2.3746243E0,3.7983942E-1,2.1843374E1,2.485733E1,2.0101156E0,7.1718974E0,5.434599E0,5.713752E0,1.7776722E1,1.909674E1,8.656986E0,6.4947114E0,5.1357937E0,1.728033E0,4.6887374E0,5.9293175E0,6.6325217E-3,6.819376E-2,4.9946866E0,3.2341156E0,9.868202E-1,2.285923E-2,4.540084E0,3.9118514E0,2.3428955E0,0E0,2.2105885E0,4.133745E0,0E0,0E0,1.4850864E1,1.2164856E1,5.701269E0,1.3382295E1,1.8749475E0,1.3122561E0,1.5539619E1,8.275974E0,0E0,0E0,0E0,0E0,0E0,0E0,0E0,0E0,0E0,0E0,0E0,0E0,0E0,0E0,0E0,0E0,0E0,0E0,0E0,0E0,0E0,0E0,0E0,0E0,0E0,0E0,0E0,0E0,0E0,0E0,0E0,0E0,0E0,0E0,0E0,0E0,0E0,0E0,0E0,0E0,0E0,0E0,0E0,0E0,0E0,0E0,0E0,0E0,0E0,0E0,0E0,0E0,0E0,0E0,0E0,0E0,0E0,0E0],"parents":[2147483647,0,0,1,1,2,2,3,3,4,4,5,5,6,6,7,7,8,8,9,9,10,10,11,11,12,12,13,13,14,14,15,15,16,16,17,17,18,18,19,19,20,20,21,21,22,22,23,23,24,24,25,25,26,26,27,27,28,28,29,29,30,30,31,31,32,32,33,33,34,34,35,35,36,36,37,37,38,38,39,39,40,40,41,41,42,42,43,43,44,44,45,45,46,46,47,47,48,48,49,49,51,51,52,52,55,55,56,56,57,57,58,58,59,59,60,60,61,61,62,62],"right_children":[2,4,6,8,10,12,14,16,18,20,22,24,26,28,30,32,34,36,38,40,42,44,46,48,50,52,54,56,58,60,62,64,66,68,70,72,74,76,78,80,82,84,86,88,90,92,94,96,98,100,-1,102,104,-1,-1,106,108,110,112,114,116,118,120,-1,-1,-1,-1,-1,-1,-1,-1,-1,-1,-1,-1,-1,-1,-1,-1,-1,-1,-1,-1,-1,-1,-1,-1,-1,-1,-1,-1,-1,-1,-1,-1,-1,-1,-1,-1,-1,-1,-1,-1,-1,-1,-1,-1,-1,-1,-1,-1,-1,-1,-1,-1,-1,-1,-1,-1,-1,-1],"split_conditions":[1.5E1,2.023E3,2.4E1,1.483E3,7.4E1,9E1,2.5E1,1.23E2,1E0,1E0,1E0,8.9E1,2.2E1,1.498E4,3E1,1.979E3,2.002E3,1E0,2.019E3,9E1,1.85E3,5E2,1E0,2.09E2,1E0,1.3792E4,1.06E2,1E0,2.019E3,5E2,3.1E1,1.954E3,3.59E2,1E0,6.4E4,2.002E3,1E0,1E0,2.1E7,8.7E1,1.02E2,9.5E1,9.1E1,2.0832E4,6.114349E6,1E0,1E0,8.832E3,1.3102E4,2.02E3,1.1909614E-1,1E0,1.978E3,2.6369727E-1,1.1380737E-1,9.7E1,1.12E2,6E6,1E0,1E0,9.6E1,1E0,4.7E1,3.475839E-2,-5.3853095E-2,-1.7427796E-1,5.6859616E-2,-1.9388005E-2,4.9695447E-2,-4.958655E-2,-1.7442688E-1,1.7470416E-2,-2.0887356E-3,-2.7371442E-2,2.3425853E-2,-5.3180397E-2,1.0099539E-2,9.109491E-3,9.859393E-2,1.6058442E-1,-2.54545E-1,4.9574354E-1,-1.4922217E-1,2.152877E-2,9.086817E-2,-1.13328695E-2,-1.1206863E-1,1.9034225E-2,-2.0751466E-1,1.4536612E-1,4.650073E-2,2.5428227E-1,1.819377E-2,5.6879405E-2,3.7746192E-3,-1.0387121E-1,6.0791858E-2,6.384612E-2,-1.5288627E-1,-3.2123718E-1,-1.8383432E-2,5.6775343E-2,1.8781699E-1,-3.2617944E-1,4.3003626E-2,3.0672562E-1,-5.3691518E-2,2.6268668E-2,-2.8157434E-1,1.6875729E-1,1.0199829E-2,-6.879976E-2,-5.1133573E-1,1.7805767E-1,-2.3446903E-3,-1.7485577E-1,6.2379234E-2,4.5633465E-3,-1.4958322E-1,4.506576E-2,5.7778135E-3],"split_indices":[3,0,3,7,7,1,3,7,16,13,23,1,3,7,3,0,0,18,0,1,5,2,14,7,20,5,1,11,0,2,3,0,6,23,2,0,11,18,2,1,1,1,1,6,2,16,20,5,5,0,0,19,0,0,0,1,1,2,9,8,1,9,3,0,0,0,0,0,0,0,0,0,0,0,0,0,0,0,0,0,0,0,0,0,0,0,0,0,0,0,0,0,0,0,0,0,0,0,0,0,0,0,0,0,0,0,0,0,0,0,0,0,0,0,0,0,0,0,0,0,0],"split_type":[0,0,0,0,0,0,0,0,0,0,0,0,0,0,0,0,0,0,0,0,0,0,0,0,0,0,0,0,0,0,0,0,0,0,0,0,0,0,0,0,0,0,0,0,0,0,0,0,0,0,0,0,0,0,0,0,0,0,0,0,0,0,0,0,0,0,0,0,0,0,0,0,0,0,0,0,0,0,0,0,0,0,0,0,0,0,0,0,0,0,0,0,0,0,0,0,0,0,0,0,0,0,0,0,0,0,0,0,0,0,0,0,0,0,0,0,0,0,0,0,0],"sum_hessian":[2.0577E4,1.6704E4,3.873E3,1.6129E4,5.75E2,9.36E2,2.937E3,5.387E3,1.0742E4,3.3E1,5.42E2,2.31E2,7.05E2,4.04E2,2.533E3,5.67E2,4.82E3,9.942E3,8E2,2.7E1,6E0,5.22E2,2E1,2.15E2,1.6E1,6.93E2,1.2E1,2.45E2,1.59E2,5E1,2.483E3,2.65E2,3.02E2,3.609E3,1.211E3,8.176E3,1.766E3,7.19E2,8.1E1,1.6E1,1.1E1,2E0,4E0,3.38E2,1.84E2,1.4E1,6E0,7.4E1,1.41E2,1.4E1,2E0,6.82E2,1.1E1,7E0,5E0,1.7E2,7.5E1,9.8E1,6.1E1,4.2E1,8E0,5.5E2,1.933E3,1.67E2,9.8E1,9E0,2.93E2,3.236E3,3.73E2,1.089E3,1.22E2,4.339E3,3.837E3,1.5E3,2.66E2,5.75E2,1.44E2,5E1,3.1E1,1.4E1,2E0,1E1,1E0,1E0,1E0,1E0,3E0,3.3E2,8E0,3.7E1,1.47E2,1.2E1,2E0,5E0,1E0,5.4E1,2E1,1.34E2,7E0,1.1E1,3E0,6.71E2,1.1E1,3E0,8E0,1E1,1.6E2,1.4E1,6.1E1,6.9E1,2.9E1,5.5E1,6E0,3.6E1,6E0,2E0,6E0,4.84E2,6.6E1,9.27E2,1.006E3],"tree_param":{"num_deleted":"0","num_feature":"27","num_nodes":"121","size_leaf_vector":"1"}},{"base_weights":[7.010017E-5,1.1379125E-2,-5.140169E-2,6.0286825E-3,1.3479705E-1,-8.229854E-2,4.094545E-2,-5.861998E-2,1.7698033E-2,2.0003168E-1,2.3379728E-2,-1.5931205E-1,-3.171797E-2,7.989934E-2,-1.174214E-1,2.432785E-2,-1.0317638E-1,1.4265859E-2,2.4697143E-1,1.1454821E-1,2.889424E-1,7.085643E-2,-2.4747175E-1,-3.8562214E-1,-9.271953E-2,5.58363E-1,-3.6660563E-2,8.552137E-1,7.246736E-2,-4.2653844E-1,-1.0252431E-1,4.5901127E-2,-1.5743351E-1,-6.5807216E-2,-2.2427997E-1,8.627857E-3,1.3893396E-1,3.2552058E-1,-1.8999623E-2,2.0693308E-1,-1.1395023E-1,1.9259441E-1,3.9878014E-1,2.7470264E-1,5.9014097E-2,-1.1421747E0,-1.411861E-1,-1.5492663E-1,-5.940026E-1,-1.3160954E-1,1.2828028E-1,6.4597934E-2,6.323433E-1,-4.5259252E-2,2.539507E-1,-6.4734938E-3,3.0148262E-1,-2.286899E-1,8.907144E-2,-1.652888E-1,2.5082523E-1,5.080172E-3,7.297017E-2,-1.3977067E-1,-1.7890284E-2,-3.1243945E-2,3.7975248E-2,-1.1382434E-1,-1.681552E-2,6.5262676E-3,-1.3477105E-2,5.287652E-2,-1.11911826E-1,1.01952896E-1,-1.5546075E-1,-1.6417274E-1,4.7282733E-2,-1.3801187E-1,7.066046E-2,6.2073926E-3,-1.4224316E-1,7.068544E-2,-8.7396316E-2,7.7090696E-2,2.0367385E-1,-6.0169096E-3,5.335431E-2,-2.9016139E-2,-4.3752578E-1,-6.8610355E-2,1.0035184E-1,-5.3790055E-2,2.5662267E-1,-2.1340348E-1,8.815628E-2,-8.1975274E-2,-2.6519308E-2,5.4246932E-2,-3.5835285E-2,2.1976319E-1,8.215685E-2,-1.9120041E-2,2.6496721E-2,1.3357851E-1,4.040248E-2,-4.2638082E-2,-5.277124E-1,-1.5118743E-1,2.872797E-2,-2.6450342E-2,-1.6425084E-1,-1.7939064E-1,1.01734765E-1],"categories":[],"categories_nodes":[],"categories_segments":[],"categories_sizes":[],"default_left":[0,0,0,0,0,0,0,0,0,0,0,0,0,0,0,0,0,0,0,0,0,0,0,0,0,0,0,0,0,0,0,0,0,0,0,0,0,0,0,0,0,0,0,0,0,0,0,0,0,0,0,0,0,0,0,0,0,0,0,0,0,0,0,0,0,0,0,0,0,0,0,0,0,0,0,0,0,0,0,0,0,0,0,0,0,0,0,0,0,0,0,0,0,0,0,0,0,0,0,0,0,0,0,0,0,0,0,0,0,0,0,0,0],"id":14,"left_children":[1,3,5,7,9,11,13,15,17,19,21,23,25,27,29,31,33,35,37,39,41,43,45,47,49,51,53,55,57,-1,59,61,63,65,67,69,71,73,75,77,79,81,83,-1,85,87,89,91,93,95,97,-1,99,101,103,-1,-1,105,107,109,111,-1,-1,-1,-1,-1,-1,-1,-1,-1,-1,-1,-1,-1,-1,-1,-1,-1,-1,-1,-1,-1,-1,-1,-1,-1,-1,-1,-1,-1,-1,-1,-1,-1,-1,-1,-1,-1,-1,-1,-1,-1,-1,-1,-1,-1,-1,-1,-1,-1,-1,-1,-1],"loss_changes":[1.197895E1,1.11404505E1,1.0580316E1,1.2201323E1,5.090378E0,1.0816332E1,5.7465563E0,9.1423645E0,1.0777094E1,3.3262787E0,3.3609104E0,1.6556934E1,4.914407E0,4.2423315E0,3.429604E0,3.3990543E0,7.266836E0,9.486965E0,4.226329E0,4.8155046E0,2.2090473E0,2.1669903E0,3.5474098E0,1.1926083E1,7.3395553E0,2.19131E-1,4.172122E0,9.406495E-1,3.7256944E0,0E0,4.099997E0,4.420205E0,2.7476723E0,9.093216E0,9.869873E0,9.080114E0,1.1224476E1,2.0612297E0,4.4709883E0,3.1987643E0,3.2106144E0,2.504561E0,3.7981348E0,0E0,2.070737E0,1.181418E0,1.5751905E0,3.1084313E0,1.3857029E1,4.413268E0,1.687711E0,0E0,1.9451523E-1,3.998555E0,1.0353353E0,0E0,0E0,4.9163904E0,2.8366742E0,4.5500975E0,2.3011167E0,0E0,0E0,0E0,0E0,0E0,0E0,0E0,0E0,0E0,0E0,0E0,0E0,0E0,0E0,0E0,0E0,0E0,0E0,0E0,0E0,0E0,0E0,0E0,0E0,0E0,0E0,0E0,0E0,0E0,0E0,0E0,0E0,0E0,0E0,0E0,0E0,0E0,0E0,0E0,0E0,0E0,0E0,0E0,0E0,0E0,0E0,0E0,0E0,0E0,0E0,0E0,0E0],"parents":[2147483647,0,0,1,1,2,2,3,3,4,4,5,5,6,6,7,7,8,8,9,9,10,10,11,11,12,12,13,13,14,14,15,15,16,16,17,17,18,18,19,19,20,20,21,21,22,22,23,23,24,24,25,25,26,26,27,27,28,28,30,30,31,31,32,32,33,33,34,34,35,35,36,36,37,37,38,38,39,39,40,40,41,41,42,42,44,44,45,45,46,46,47,47,48,48,49,49,50,50,52,52,53,53,54,54,57,57,58,58,59,59,60,60],"right_children":[2,4,6,8,10,12,14,16,18,20,22,24,26,28,30,32,34,36,38,40,42,44,46,48,50,52,54,56,58,-1,60,62,64,66,68,70,72,74,76,78,80,82,84,-1,86,88,90,92,94,96,98,-1,100,102,104,-1,-1,106,108,110,112,-1,-1,-1,-1,-1,-1,-1,-1,-1,-1,-1,-1,-1,-1,-1,-1,-1,-1,-1,-1,-1,-1,-1,-1,-1,-1,-1,-1,-1,-1,-1,-1,-1,-1,-1,-1,-1,-1,-1,-1,-1,-1,-1,-1,-1,-1,-1,-1,-1,-1,-1,-1],"split_conditions":[1E0,2.023E3,1E0,3.68E2,5.629E3,2.949E3,2.017E3,1.33E2,6.4E1,1.2059E4,2.3E1,3.078E3,7.5E1,4.7E1,3.7E1,1.9521E4,2.011E3,1E0,1.8565E4,1E0,7.69E2,3.85E2,6.412E3,1.999E3,3.8E1,3.757E3,1E0,1.936E3,7.9E1,-4.2653844E-1,1.25E4,1.7045E4,2.0077E4,1.5E1,1E0,1E0,5E2,9E6,1.046E3,1.6E1,3E1,1.23E2,1.17E2,2.7470264E-1,3.0482E4,1.15E2,4.4E1,1E0,2.5E1,8.8E1,1.05E2,6.4597934E-2,1E0,2.85718E5,1.01E2,-6.4734938E-3,3.0148262E-1,2.0997E4,3E0,1.1584E4,3E0,5.080172E-3,7.297017E-2,-1.3977067E-1,-1.7890284E-2,-3.1243945E-2,3.7975248E-2,-1.1382434E-1,-1.681552E-2,6.5262676E-3,-1.3477105E-2,5.287652E-2,-1.11911826E-1,1.01952896E-1,-1.5546075E-1,-1.6417274E-1,4.7282733E-2,-1.3801187E-1,7.066046E-2,6.2073926E-3,-1.4224316E-1,7.068544E-2,-8.7396316E-2,7.7090696E-2,2.0367385E-1,-6.0169096E-3,5.335431E-2,-2.9016139E-2,-4.3752578E-1,-6.8610355E-2,1.0035184E-1,-5.3790055E-2,2.5662267E-1,-2.1340348E-1,8.815628E-2,-8.1975274E-2,-2.6519308E-2,5.4246932E-2,-3.5835285E-2,2.1976319E-1,8.215685E-2,-1.9120041E-2,2.6496721E-2,1.3357851E-1,4.040248E-2,-4.2638082E-2,-5.277124E-1,-1.5118743E-1,2.872797E-2,-2.6450342E-2,-1.6425084E-1,-1.7939064E-1,1.01734765E-1],"split_indices":[8,0,12,7,7,7,0,7,3,6,3,5,1,7,7,6,0,23,6,24,7,5,7,0,4,7,26,0,1,0,5,6,6,3,14,18,2,2,7,1,3,1,1,0,7,1,3,20,3,1,1,0,23,7,1,0,0,6,4,5,1,0,0,0,0,0,0,0,0,0,0,0,0,0,0,0,0,0,0,0,0,0,0,0,0,0,0,0,0,0,0,0,0,0,0,0,0,0,0,0,0,0,0,0,0,0,0,0,0,0,0,0,0],"split_type":[0,0,0,0,0,0,0,0,0,0,0,0,0,0,0,0,0,0,0,0,0,0,0,0,0,0,0,0,0,0,0,0,0,0,0,0,0,0,0,0,0,0,0,0,0,0,0,0,0,0,0,0,0,0,0,0,0,0,0,0,0,0,0,0,0,0,0,0,0,0,0,0,0,0,0,0,0,0,0,0,0,0,0,0,0,0,0,0,0,0,0,0,0,0,0,0,0,0,0,0,0,0,0,0,0,0,0,0,0,0,0,0,0],"sum_hessian":[2.0577E4,1.6871E4,3.706E3,1.6171E4,7E2,2.777E3,9.29E2,2.472E3,1.3699E4,4.41E2,2.59E2,1.1E3,1.677E3,7.46E2,1.83E2,8.64E2,1.608E3,1.3498E4,2.01E2,2.26E2,2.15E2,2.21E2,3.8E1,2.49E2,8.51E2,1.3E1,1.664E3,6E0,7.4E2,1E0,1.82E2,7.73E2,9.1E1,1.23E3,3.78E2,1.2915E4,5.83E2,1.55E2,4.6E1,1.61E2,6.5E1,1.16E2,9.9E1,2E0,2.19E2,3E0,3.5E1,1.19E2,1.3E2,7.24E2,1.27E2,3E0,1E1,1.617E3,4.7E1,1E0,5E0,3.8E1,7.02E2,1.55E2,2.7E1,6.75E2,9.8E1,2.1E1,7E1,1.026E3,2.04E2,1.96E2,1.82E2,1.0373E4,2.542E3,5.44E2,3.9E1,1.53E2,2E0,1.1E1,3.5E1,6E0,1.55E2,4.8E1,1.7E1,1.07E2,9E0,6.7E1,3.2E1,1.32E2,8.7E1,1E0,2E0,3E1,5E0,1.17E2,2E0,1.15E2,1.5E1,1.68E2,5.56E2,1.05E2,2.2E1,7E0,3E0,1.421E3,1.96E2,1.7E1,3E1,3.7E1,1E0,7E0,6.95E2,1.3E2,2.5E1,2E0,2.5E1],"tree_param":{"num_deleted":"0","num_feature":"27",